// #### Generated By: http://www.cufonfonts.com ####
/*!
 * The following copyright notice may not be removed under any circumstances.
 * 
 * Copyright:
 * Copyright (c) SIL International, 1997-2009. All rights reserved.
 * 
 * Trademark:
 * Charis SIL is a trademark of SIL International.
 * 
 * Manufacturer:
 * SIL International
 * 
 * Vendor URL:
 * www.sil.org
 * 
 * License information:
 * http://scripts.sil.org/OFL
 */
Cufon.registerFont({"w":1153,"face":{"font-family":"Charis SIL","font-weight":400,"font-stretch":"normal","units-per-em":"2048","panose-1":"2 0 5 0 6 0 0 2 0 4","ascent":"1638","descent":"-410","x-height":"25","bbox":"-161.942 -1832 2083 528","underline-thickness":"120","underline-position":"-230","unicode-range":"U+000D-U+20B5"},"glyphs":{" ":{"w":600},"\r":{"w":1024},"!":{"d":"346,-227v76,0,127,49,127,125v0,75,-52,127,-127,127v-75,0,-125,-52,-125,-127v0,-76,49,-125,125,-125xm346,-1407v103,0,131,73,122,181r-71,855r-100,0r-76,-903v1,-83,39,-133,125,-133","w":692},"\"":{"d":"88,-1362v-1,-61,30,-100,88,-100v59,0,94,39,86,100r-69,500r-33,0xm420,-1362v0,-61,28,-100,86,-100v59,0,97,39,88,100r-72,500r-33,0","w":682},"#":{"d":"664,-862r-101,293r297,0r101,-293r-297,0xm1073,-862r-96,293r330,0r0,102r-367,0r-172,514r-102,-33r159,-481r-297,0r-174,514r-100,-35r164,-479r-291,0r0,-102r324,0r100,-293r-332,0r0,-105r367,0r164,-483r104,33r-158,450r299,0r162,-483r109,33r-156,450r287,0r0,105r-324,0","w":1522},"$":{"d":"627,-109v125,-24,221,-93,221,-241v0,-153,-105,-206,-221,-244r0,485xm535,-1266v-113,27,-193,96,-193,234v0,132,97,181,193,219r0,-453xm629,-1374v129,0,245,23,348,47r0,323r-107,0r-30,-217v-32,-35,-102,-53,-211,-53r0,488v207,60,405,131,405,397v0,219,-160,317,-330,375v-28,10,-54,13,-77,14r0,211r-95,0r0,-211v-142,-7,-294,-18,-413,-53r0,-348r102,0r37,229v54,55,166,69,274,72r0,-518v-194,-49,-380,-135,-380,-373v0,-242,176,-335,383,-377r0,-154r94,0r0,148"},"%":{"d":"452,-650v93,-81,97,-305,76,-473v-13,-104,-40,-206,-147,-206v-150,0,-162,186,-162,352v0,140,17,264,89,327v38,33,106,34,144,0xm1454,-68v92,-82,97,-306,75,-475v-13,-104,-40,-207,-147,-207v-149,0,-161,188,-161,353v0,140,17,265,89,329v38,33,106,33,144,0xm381,-1407v289,0,353,318,294,601v-31,147,-119,259,-294,259v-286,0,-357,-321,-295,-600v32,-147,120,-260,295,-260xm512,0r-129,0r870,-1374r127,0xm1382,-827v289,0,354,317,294,599v-31,146,-119,261,-294,261v-286,0,-358,-322,-296,-600v32,-147,121,-260,296,-260","w":1761},"&":{"d":"434,-682v-78,56,-147,123,-147,254v0,149,76,247,181,295v114,52,263,10,334,-47v18,-15,37,-28,54,-43xm557,-803v105,-52,186,-124,186,-276v0,-130,-62,-217,-192,-221v-149,-3,-221,151,-165,288v36,89,107,148,171,209xm932,-1092v0,212,-154,289,-301,359r344,371v47,-65,99,-145,115,-240v1,-13,-21,-37,-35,-39r-111,-16r0,-86r420,0r0,86r-147,22v-39,134,-103,246,-175,346r166,191r183,10r0,88r-377,0r0,-49r-92,-103v-111,86,-221,177,-416,177v-197,0,-327,-103,-392,-243v-22,-50,-34,-104,-34,-163v0,-203,128,-296,274,-360v-78,-79,-172,-162,-172,-314v0,-173,103,-272,235,-321v143,-53,332,-12,412,63v55,52,103,122,103,221","w":1432},"'":{"d":"88,-1362v0,-61,28,-100,86,-100v59,0,96,39,88,100r-69,500r-33,0","w":350},"(":{"d":"311,-590v0,395,63,728,391,791r0,90v-429,-56,-581,-404,-581,-881v0,-472,155,-824,581,-878r0,90v-328,62,-391,395,-391,788","w":770},")":{"d":"459,-590v0,-393,-61,-726,-389,-788r0,-90v490,53,632,547,568,1096v-42,359,-206,617,-568,663r0,-90v329,-62,389,-398,389,-791","w":770},"*":{"d":"406,-743r-142,53r4,-152r207,-166r25,19xm467,-1036r-266,-15r-92,-116r145,-43r221,145xm618,-743r-94,-246r25,-19r207,166r4,152xm526,-1085r-28,0r-70,-256r84,-125r86,125xm823,-1051r-264,15r-10,-29r221,-145r145,43","w":1024},"+":{"d":"1087,-551r0,551r-126,0r0,-551r-551,0r0,-127r551,0r0,-551r126,0r0,551r551,0r0,127r-551,0","w":2048},",":{"d":"252,-250v176,-6,202,231,140,372v-55,123,-168,209,-326,226r0,-74v144,-30,230,-110,225,-288r-129,0v-19,-21,-39,-53,-37,-95v3,-80,47,-138,127,-141","w":573},"-":{"d":"90,-416r0,-153r475,0r0,153r-475,0","w":655},".":{"d":"262,-250v82,0,139,55,139,137v0,83,-57,138,-139,138v-82,0,-137,-55,-137,-138v0,-82,55,-137,137,-137","w":573},"\/":{"d":"131,190r-131,0r872,-1564r132,0","w":1004},"0":{"d":"744,-162v125,-179,132,-547,86,-821v-21,-128,-66,-242,-159,-297v-54,-33,-139,-34,-192,0v-183,119,-195,448,-177,746v12,187,53,363,177,440v54,33,138,33,192,0v28,-16,52,-40,73,-68xm728,-1380v311,117,397,565,312,972v-36,170,-119,304,-246,384v-120,75,-316,73,-436,0v-225,-137,-313,-491,-262,-852v34,-238,131,-426,327,-504v90,-35,215,-34,305,0"},"1":{"d":"676,-145v-1,24,21,44,45,45r192,8r0,92r-692,0r0,-92r207,-8v24,1,46,-21,45,-45r0,-1088r-317,55r0,-92r442,-137r78,0r0,1262"},"2":{"d":"248,-981v-75,0,-123,-43,-123,-121v0,-162,141,-240,279,-282v181,-56,399,-1,500,88v99,87,166,268,100,430v-71,172,-206,293,-340,412v-53,46,-110,92,-170,139r-181,143r607,0r36,-176r101,0r0,348r-961,0r0,-137r287,-237v150,-126,287,-250,375,-408v36,-65,53,-133,53,-205v0,-190,-107,-303,-293,-309v-72,-2,-126,30,-170,53r0,227v-23,20,-56,35,-100,35"},"3":{"d":"846,-391v4,-224,-210,-281,-432,-250r0,-127v210,11,381,-57,381,-258v0,-167,-105,-268,-269,-268v-79,0,-138,26,-184,57r0,205v-73,49,-221,27,-211,-88v13,-154,144,-223,279,-264v169,-50,376,-11,472,73v67,59,122,140,122,258v0,186,-145,283,-316,330v206,17,369,113,369,332v0,219,-154,335,-329,393v-222,73,-510,13,-604,-130v-63,-96,-1,-214,128,-188v15,3,26,5,35,11r61,182v76,50,212,73,309,26v106,-51,187,-146,189,-294"},"4":{"d":"705,-1145r-461,598r461,0r0,-598xm897,-408r0,441r-192,0r0,-441r-623,0r0,-141r672,-858r143,0r0,860r174,0r0,139r-174,0"},"5":{"d":"319,-811v120,-46,328,-76,469,-25v162,58,271,179,271,392v0,242,-137,378,-329,442v-111,36,-279,52,-400,12v-87,-28,-161,-74,-207,-136v-21,-29,-31,-56,-31,-83v0,-94,94,-134,184,-106r78,188v63,61,209,77,302,29v107,-55,194,-151,194,-297v0,-222,-131,-338,-350,-338v-122,0,-228,38,-326,69r0,-710r791,0r0,174r-646,0r0,389"},"6":{"d":"573,-74v207,0,286,-159,289,-368v3,-220,-131,-352,-358,-312v-81,14,-151,52,-207,95v-16,232,10,460,149,551v35,23,78,34,127,34xm303,-766v119,-115,331,-169,517,-96v149,59,251,191,251,393v0,241,-128,392,-303,465v-60,24,-126,37,-195,37v-354,0,-491,-250,-491,-621v0,-394,181,-647,472,-760v102,-39,217,-59,347,-59r0,127v-279,-23,-440,108,-534,295v-32,65,-53,138,-64,219"},"7":{"d":"395,-35r0,68r-217,0r676,-1233r-631,0r-33,186r-104,0r0,-360r981,0r0,114"},"8":{"d":"272,-385v0,193,108,307,303,307v171,0,287,-97,287,-262v0,-157,-114,-207,-233,-256r-172,-70v-100,55,-185,128,-185,281xm676,-762v79,-60,149,-137,149,-274v0,-162,-92,-267,-250,-267v-143,0,-235,93,-235,234v0,137,96,194,194,247v41,22,89,41,142,60xm764,-723v151,59,305,142,305,350v0,206,-135,319,-297,375v-192,67,-448,15,-556,-83v-74,-68,-134,-158,-134,-288v0,-202,146,-281,293,-342v-121,-54,-238,-140,-238,-311v0,-257,177,-385,438,-385v196,0,335,84,405,213v22,43,34,90,34,139v0,180,-130,268,-250,332"},"9":{"d":"289,-932v-3,220,131,352,358,312v81,-14,151,-52,207,-95v16,-232,-11,-461,-150,-551v-35,-23,-77,-34,-126,-34v-208,0,-286,159,-289,368xm578,-1407v353,0,493,249,493,621v0,395,-182,647,-473,760v-102,39,-218,59,-348,59r0,-127v279,23,441,-108,536,-295v32,-65,53,-138,64,-219v-87,75,-188,129,-342,129v-206,0,-335,-105,-396,-255v-45,-113,-38,-265,8,-374v73,-173,222,-299,458,-299"},":":{"d":"262,-250v82,0,139,55,139,137v0,83,-57,138,-139,138v-82,0,-137,-55,-137,-138v0,-82,55,-137,137,-137xm262,-1012v82,0,139,55,139,138v0,82,-57,137,-139,137v-82,0,-137,-55,-137,-137v0,-83,55,-138,137,-138","w":573},";":{"d":"252,-250v176,-6,202,231,140,372v-55,123,-168,209,-326,226r0,-74v144,-30,230,-110,225,-288r-129,0v-19,-21,-39,-53,-37,-95v3,-80,47,-138,127,-141xm264,-1012v82,0,135,56,135,138v0,82,-56,137,-137,137v-82,0,-137,-55,-137,-137v0,-83,56,-138,139,-138","w":573},"<":{"d":"410,-551r0,-127r1228,-471r0,127r-1097,408r1097,407r0,127","w":2048},"=":{"d":"410,-365r0,-127r1228,0r0,127r-1228,0xm410,-737r0,-127r1228,0r0,127r-1228,0","w":2048},">":{"d":"410,-80r0,-127r1097,-407r-1097,-408r0,-127r1228,471r0,127","w":2048},"?":{"d":"270,-1098v-93,10,-168,-19,-168,-108v0,-256,481,-238,630,-102v67,61,122,147,122,268v0,265,-203,357,-389,444r0,227r-115,0r0,-297v151,-57,293,-154,297,-358v3,-190,-105,-283,-293,-283xm410,-227v77,0,127,51,127,127v0,76,-52,125,-127,125v-76,0,-125,-51,-125,-127v0,-76,49,-125,125,-125","w":995},"@":{"d":"745,-469v0,157,84,259,225,207v61,-22,106,-73,144,-119r82,-424v-2,-64,-54,-117,-121,-117v-178,0,-264,130,-307,276v-16,55,-23,114,-23,177xm1583,133v-210,117,-513,233,-831,155v-292,-72,-491,-259,-572,-545v-74,-262,-2,-577,107,-742v159,-240,402,-416,782,-416v327,0,544,139,647,371v82,184,57,481,-30,633v-71,124,-170,228,-308,277v-38,13,-74,19,-108,19v-114,0,-159,-57,-160,-170v-87,84,-163,168,-297,168v-179,0,-256,-147,-256,-334v0,-256,144,-424,321,-514v123,-63,287,-48,390,13r37,-47r114,0r-139,608v-22,76,-7,169,76,160v154,-18,232,-167,281,-311v47,-140,41,-346,-17,-470v-89,-189,-263,-313,-524,-313v-347,0,-562,165,-696,389v-103,173,-138,478,-54,701v100,264,312,446,668,446v228,0,395,-72,540,-152","w":1917},"A":{"d":"643,-1143r-199,537r400,0xm883,0r0,-88r118,-10v12,2,25,-24,21,-35r-141,-375r-473,0r-136,369v-3,63,96,39,150,51r0,88r-412,0r0,-88r119,-25r477,-1294r154,0r475,1264v9,57,86,38,135,55r0,88r-487,0","w":1380},"B":{"d":"780,-729v220,5,379,98,379,323v0,299,-224,406,-520,406r-573,0r0,-88v57,-10,151,13,151,-53r0,-1092v-2,-63,-94,-44,-151,-53r0,-88r548,0v266,2,461,75,461,330v0,195,-144,271,-295,315xm549,-100v234,0,388,-60,387,-289v-1,-198,-123,-270,-330,-270v-59,0,-130,8,-184,12r0,541xm422,-756v245,14,437,-37,432,-274v-4,-177,-121,-251,-315,-250r-117,6r0,518","w":1239},"C":{"d":"1204,-47v-154,62,-424,112,-622,53v-254,-75,-423,-251,-481,-512v-90,-407,103,-730,403,-848v170,-67,414,-63,585,-7r115,34r0,321r-123,0r-30,-186v-22,-66,-100,-83,-173,-94v-277,-42,-454,118,-526,336v-48,144,-48,370,-2,516v71,225,250,385,550,349v61,-7,127,-18,138,-71r47,-223r119,0r0,332","w":1284},"D":{"d":"1114,-686v0,-379,-161,-589,-532,-590r-156,0r0,1178v139,-2,274,2,380,-36v209,-75,308,-262,308,-552xm1289,-996v79,178,70,477,-13,644v-109,220,-312,352,-641,352r-569,0r0,-88v57,-10,153,12,153,-53r0,-1092v-3,-62,-95,-44,-153,-53r0,-88r528,0v347,2,585,132,695,378","w":1425},"E":{"d":"770,-627v1,-14,-21,-37,-37,-37r-307,0r0,564r518,0v17,1,35,-26,37,-39r37,-203r110,0r0,342r-1062,0r0,-88v57,-10,151,12,151,-53r0,-1092v-3,-62,-94,-44,-151,-53r0,-88r995,0r0,305r-123,0r-31,-168v-2,-18,-18,-39,-37,-39r-444,0r0,510r307,0v17,1,35,-20,37,-35r21,-141r104,0r0,457r-104,0","w":1194},"F":{"d":"926,-1049r-29,-188v-4,-18,-15,-37,-35,-37r-436,0r0,533r313,0v18,1,35,-23,37,-37r19,-144r102,0r0,461r-102,0r-19,-143v-2,-13,-20,-37,-37,-37r-313,0r0,500v1,23,17,44,43,45r137,8r0,88r-538,0r0,-88v57,-10,151,13,151,-53r0,-1092v-1,-23,-17,-44,-43,-45r-125,-8r0,-88r996,0r0,325r-121,0","w":1108},"G":{"d":"621,-124v112,51,282,51,397,11r0,-409v-1,-24,-17,-42,-43,-43r-137,-10r0,-89r534,0r0,89v-54,12,-147,-11,-147,53r0,473v-168,64,-430,115,-641,55v-254,-73,-421,-249,-483,-510v-67,-281,30,-562,177,-706v156,-153,457,-239,755,-174r190,47r0,331r-123,0r-33,-184v-14,-56,-76,-63,-126,-82v-99,-37,-238,-22,-331,19v-192,85,-297,275,-297,553v0,290,108,485,308,576","w":1423},"H":{"d":"938,0r0,-88v59,-11,160,15,160,-53r0,-529r-674,0r0,529v1,23,17,43,43,45r117,8r0,88r-518,0r0,-88v57,-10,151,12,151,-53r0,-1092v-4,-60,-95,-42,-151,-51r0,-90r518,0r0,90v-58,12,-160,-16,-160,51r0,461r674,0r0,-461v-4,-63,-102,-41,-160,-51r0,-90r518,0r0,90v-56,10,-151,-12,-151,51r0,1092v3,62,94,44,151,53r0,88r-518,0","w":1522},"I":{"d":"68,0r0,-88v61,-12,165,17,165,-53r0,-1092v-4,-65,-106,-40,-165,-51r0,-90r540,0r0,90v-61,12,-168,-17,-168,51r0,1092v1,23,18,44,43,45r125,8r0,88r-540,0","w":676},"J":{"d":"282,-74v245,22,289,-189,289,-430r0,-729v-1,-23,-17,-44,-43,-45r-129,-8r0,-88r541,0r0,88v-60,11,-162,-15,-162,53r0,715v0,335,-116,551,-450,551v-104,0,-204,-30,-277,-58r0,-350r123,0r45,250v6,30,31,48,63,51","w":993},"K":{"d":"948,0r0,-63r-381,-547r-143,0r0,469v4,65,102,43,162,53r0,88r-520,0r0,-88v57,-10,151,13,151,-53r0,-1092v-2,-63,-94,-44,-151,-53r0,-88r520,0r0,88v-60,11,-162,-15,-162,53r0,537r74,0r446,-545v10,-13,-5,-34,-16,-35r-105,-10r0,-88r434,0r0,88r-139,16r-418,500r459,672r148,10r0,88r-359,0","w":1307},"L":{"d":"55,0r0,-88v60,-12,162,16,162,-53r0,-1092v-1,-23,-17,-43,-43,-45r-119,-8r0,-88r523,0r0,88v-58,10,-154,-13,-154,53r0,1133r430,0v18,0,43,-18,45,-35r33,-246r119,0r0,381r-996,0","w":1087},"M":{"d":"1214,0r0,-88v58,-10,154,13,154,-53r0,-1129r-471,1270r-102,0r-455,-1251r0,1110v4,65,102,43,162,53r0,88r-443,0r0,-88v59,-11,160,16,160,-53r0,-1092v-1,-23,-17,-43,-43,-45r-117,-8r0,-88r459,0r0,55r371,1006r371,-1000r0,-61r471,0r0,88v-58,10,-156,-13,-156,53r0,1092v3,63,98,44,156,53r0,88r-517,0","w":1794},"N":{"d":"1417,-1286v-58,11,-157,-15,-157,53r0,1233r-160,0r-762,-1147r0,1006v1,23,17,43,43,45r117,8r0,88r-443,0r0,-88v60,-11,162,15,162,-53r0,-1092v-1,-23,-20,-44,-45,-45r-121,-8r0,-88r406,0r0,51r682,1030r0,-940v-1,-23,-18,-44,-43,-45r-117,-8r0,-88r438,0r0,88","w":1477},"O":{"d":"1073,-260v137,-192,140,-653,-1,-852v-69,-98,-166,-178,-322,-178v-245,0,-358,167,-409,370v-57,227,-17,516,81,659v68,100,165,180,323,181v159,0,258,-81,328,-180xm1370,-966v64,171,64,389,-1,560v-94,249,-289,439,-619,439v-331,0,-528,-186,-622,-435v-64,-170,-65,-395,-1,-567v93,-251,288,-438,621,-438v332,0,528,192,622,441","w":1497},"P":{"d":"541,-616v229,1,349,-113,352,-342v4,-263,-190,-335,-467,-314r0,645v33,3,77,11,115,11xm541,-1374v336,-1,569,81,565,413v-4,358,-305,479,-680,439r0,381v1,23,17,44,43,45r135,8r0,88r-538,0r0,-88v57,-10,153,12,153,-53r0,-1092v-1,-23,-20,-44,-45,-45r-123,-8r0,-88r490,0","w":1186},"Q":{"d":"949,-130v212,-120,291,-466,217,-786v-48,-206,-163,-376,-410,-376v-246,0,-360,166,-411,370v-57,228,-15,514,83,658v69,101,168,183,328,184v74,0,137,-19,193,-50xm1044,371v-250,1,-394,-100,-395,-344v-268,-43,-442,-205,-526,-439v-71,-198,-45,-482,41,-639v111,-202,287,-356,590,-356v337,0,536,186,632,438v61,162,64,373,10,541v-79,241,-256,404,-528,451v5,163,105,250,283,247v72,0,142,-9,197,-22r0,88v-85,18,-195,36,-304,35","w":1513},"R":{"d":"424,-713v261,16,455,-30,455,-288v0,-242,-200,-283,-455,-273r0,561xm1102,-1010v0,220,-157,298,-336,342v176,36,247,158,280,332v20,106,53,195,148,230v34,13,79,20,135,20r0,92v-40,9,-83,27,-135,27v-283,0,-300,-237,-372,-441v-44,-124,-131,-206,-306,-204v-31,0,-64,2,-92,4r0,467v2,63,94,44,151,53r0,88r-509,0r0,-88v57,-10,151,12,151,-53r0,-1092v-3,-62,-94,-44,-151,-53r0,-88r534,0v290,1,502,77,502,364","w":1329},"S":{"d":"776,-1234v-152,-127,-481,-54,-463,179v9,119,78,172,163,217v210,111,511,145,511,453v0,208,-128,323,-296,382v-178,63,-470,36,-611,-40r0,-363r129,0r27,232v20,61,87,73,156,85v200,33,386,-41,386,-235v0,-95,-63,-149,-124,-192v-172,-121,-434,-156,-526,-356v-39,-85,-28,-215,10,-299v88,-195,367,-280,642,-211v56,14,104,29,156,45r0,319r-117,0r-31,-196v-1,-7,-5,-14,-12,-20","w":1067},"T":{"d":"1073,-1047r-29,-192v-4,-19,-13,-35,-34,-35r-293,0r0,1133v1,23,17,44,43,45r131,8r0,88r-555,0r0,-88r131,-8v26,-1,42,-22,43,-45r0,-1133r-295,0v-20,0,-33,16,-35,35r-28,192r-119,0r0,-327r1161,0r0,327r-121,0","w":1227},"U":{"d":"770,-104v258,0,350,-152,350,-404r0,-725v-4,-65,-102,-43,-162,-53r0,-88r445,0r0,88v-60,12,-162,-16,-162,53r0,778v1,339,-187,488,-526,488v-334,1,-500,-160,-500,-488r0,-778v-2,-63,-95,-44,-152,-53r0,-88r521,0r0,88v-59,11,-160,-16,-160,53r0,725v-4,256,85,404,346,404","w":1458},"V":{"d":"1225,-1264r-459,1297r-156,0r-469,-1299r-121,-20r0,-88r490,0r0,88r-121,10v-13,0,-22,24,-18,37r360,1012r346,-1008v6,-17,-13,-40,-28,-41r-113,-10r0,-88r407,0r0,88","w":1364},"W":{"d":"1761,-1262r-313,1295r-150,0r-342,-1135r-335,1135r-148,0r-334,-1295r-119,-24r0,-88r469,0r0,88r-122,12v-18,1,-26,22,-21,41r244,924r321,-1065r158,0r330,1098r227,-957v4,-20,-10,-40,-29,-41r-129,-12r0,-88r418,0r0,88","w":1907},"X":{"d":"752,0r0,-88r118,-12v18,-1,38,-21,25,-43r-272,-428r-316,434v-12,20,-3,37,25,39r123,10r0,88r-435,0r0,-88r123,-25r412,-565r-373,-584r-135,-24r0,-88r514,0r0,88r-104,10v-28,0,-38,21,-25,41r250,385r276,-379v16,-21,-5,-42,-22,-43r-105,-14r0,-88r429,0r0,88r-132,20r-380,523r403,630r127,25r0,88r-526,0","w":1298},"Y":{"d":"1151,-1266r-412,682r0,443v1,23,18,44,43,45r131,8r0,88r-553,0r0,-88v63,-12,172,17,172,-53r0,-412r-393,-709r-119,-24r0,-88r486,0r0,88r-103,10v-27,2,-35,20,-24,41r289,535r317,-529v19,-64,-89,-43,-139,-57r0,-88r416,0r0,88","w":1282},"Z":{"d":"80,0r0,-90r762,-1182r-533,0v-21,0,-32,17,-35,35r-30,190r-121,0r0,-327r964,0r0,94r-763,1176r583,0v20,0,31,-19,35,-37r35,-238r121,0r0,379r-1018,0","w":1178},"[":{"d":"279,270r0,-1720r497,0r0,92r-319,0r0,1534r319,0r0,94r-497,0","w":866},"\\":{"d":"870,190r-870,-1564r131,0r870,1564r-131,0","w":1001},"]":{"d":"90,270r0,-94r322,0r0,-1534r-322,0r0,-92r500,0r0,1720r-500,0","w":866},"^":{"d":"547,-1128r-211,-203r-213,203r-123,0r258,-347r154,0r258,347r-123,0","w":670},"_":{"d":"0,305r0,-130r686,0r0,130r-686,0","w":686},"`":{"d":"47,-1327v-76,-39,-55,-174,47,-174v58,0,81,25,107,55r274,318r-117,0","w":717},"a":{"d":"426,-96v104,0,182,-53,252,-97r0,-354v-147,38,-256,71,-342,137v-48,37,-64,75,-64,144v0,98,54,170,154,170xm543,-1012v216,-2,324,97,323,307r0,574v1,61,86,43,142,51r0,80r-303,0r-27,-121v-97,67,-189,146,-342,146v-190,0,-305,-151,-258,-349v37,-155,206,-191,368,-244v64,-21,143,-38,232,-57r0,-88v-1,-136,-57,-200,-191,-202v-56,-1,-112,14,-145,26r0,178r-149,0v-44,0,-78,-13,-76,-59v7,-148,141,-200,274,-228v50,-11,101,-14,152,-14","w":1042},"b":{"d":"1067,-541v0,361,-216,538,-588,541r-295,0r0,-1362r-155,0r0,-68r264,-79r82,0r0,573v114,-61,319,-110,459,-38v144,74,233,222,233,433xm375,-98v317,27,483,-94,483,-402v0,-236,-97,-391,-313,-391v-61,0,-122,18,-170,33r0,760","w":1137},"c":{"d":"470,-136v135,66,317,19,415,-57r0,117v-98,50,-200,101,-346,101v-235,0,-371,-130,-436,-308v-47,-128,-40,-310,7,-431v80,-205,294,-343,578,-284v103,21,193,73,193,191v0,76,-47,118,-121,121v-44,1,-76,-19,-103,-35r0,-178v-56,-38,-147,-27,-209,4v-185,94,-223,495,-84,671v28,37,64,67,106,88","w":954},"d":{"d":"443,-144v108,59,260,13,337,-42r0,-697v-89,-29,-224,-46,-312,-1v-126,64,-196,195,-196,382v0,171,60,297,171,358xm362,-966v112,-51,290,-55,418,-21r0,-375r-155,0r0,-68r264,-79r82,0r0,1378v0,59,78,44,131,51r0,80r-322,0r0,-109v-86,63,-175,134,-317,134v-215,0,-327,-143,-371,-317v-78,-307,51,-574,270,-674","w":1155},"e":{"d":"610,-100v140,0,233,-70,324,-127r0,125v-136,90,-364,174,-568,96v-180,-69,-296,-227,-296,-477v0,-249,113,-414,288,-491v59,-25,123,-38,193,-38v275,0,397,190,381,477r-664,0v5,245,91,435,342,435xm729,-627v7,-165,-44,-284,-199,-284v-164,0,-237,124,-251,284r450,0","w":1004},"f":{"d":"426,-1453v102,-71,371,-95,371,67v0,65,-45,96,-95,110r-188,-133v-118,63,-127,247,-121,438r254,0r0,105r-254,0r0,735v3,67,103,41,164,51r0,80r-498,0r0,-80v56,-9,144,14,144,-51r0,-735r-131,0r0,-72r131,-37v-4,-186,54,-309,139,-407v25,-29,55,-51,84,-71","w":668},"g":{"d":"410,-55v-108,33,-192,137,-140,271v36,93,121,159,252,159v138,0,228,-66,272,-159v40,-85,1,-169,-60,-199v-86,-43,-213,-54,-324,-72xm506,-426v135,0,190,-113,190,-252v0,-135,-57,-250,-190,-250v-138,0,-195,109,-195,252v0,140,58,250,195,250xm369,-356v-143,-38,-254,-132,-254,-308v0,-237,170,-348,411,-348v97,0,170,32,238,62r276,0r0,100r-204,0v57,76,77,233,18,328v-73,118,-214,190,-405,180v-21,33,-27,91,-17,137r105,11v172,20,349,52,421,172v85,142,-35,297,-126,370v-144,116,-496,174,-661,38v-57,-47,-101,-114,-101,-208v0,-147,88,-223,217,-248v-51,-107,7,-219,82,-286","w":1075},"h":{"d":"713,-1012v185,0,278,119,278,310r0,571v2,59,82,44,137,51r0,80r-456,0r0,-80v52,-7,129,8,129,-51r0,-528v1,-135,-65,-204,-203,-203v-88,1,-164,28,-223,59r0,672v-1,60,77,44,129,51r0,80r-461,0r0,-80v55,-9,141,13,141,-51r0,-1231r-153,0r0,-68r262,-79r82,0r0,624v92,-52,203,-127,338,-127","w":1176},"i":{"d":"70,0r0,-80v55,-9,143,14,143,-51r0,-731r-141,0r0,-72r250,-78r81,0r0,881v2,63,91,43,148,51r0,80r-481,0xm322,-1450v75,0,124,50,124,125v0,76,-49,127,-124,127v-76,0,-127,-51,-127,-127v0,-76,51,-125,127,-125","w":621},"j":{"d":"125,375v86,-54,98,-191,98,-332r0,-909r-145,0r0,-68r252,-78r84,0r0,881v-1,157,-18,311,-80,410v-70,111,-184,186,-340,190v-102,4,-182,-56,-148,-159v12,-37,44,-60,80,-72xm311,-1450v76,0,125,49,125,125v0,76,-49,127,-125,127v-76,0,-127,-51,-127,-127v0,-76,51,-125,127,-125","w":598},"k":{"d":"745,0r0,-80r-256,-385r-114,0r0,334v0,59,78,44,131,51r0,80r-465,0r0,-80v55,-9,143,14,143,-51r0,-1231r-155,0r0,-68r262,-79r84,0r0,985r41,0r301,-340v12,-15,-1,-34,-17,-35r-84,-8r0,-80r398,0r0,80r-131,14r-271,289r353,512r108,12r0,80r-328,0","w":1094},"l":{"d":"399,-129v-1,17,26,42,43,43r111,6r0,80r-498,0r0,-80r109,-6v17,1,45,-26,45,-43r0,-1233r-156,0r0,-68r262,-79r84,0r0,1380","w":608},"m":{"d":"1290,-1012v190,0,264,131,264,314r0,567v1,61,86,43,142,51r0,80r-459,0r0,-80v51,-8,129,10,129,-51r0,-522v1,-132,-51,-210,-182,-209v-86,1,-158,28,-219,57r0,674v0,58,77,44,129,51r0,80r-449,0r0,-80v51,-8,129,10,129,-51r0,-535v0,-124,-55,-196,-180,-196v-86,0,-161,29,-219,59r0,672v0,58,77,44,129,51r0,80r-463,0r0,-80v55,-9,143,14,143,-51r0,-711r-141,0r0,-67r248,-78r84,0r0,102v94,-53,196,-127,334,-127v118,0,183,66,225,142r75,-44v79,-42,171,-98,281,-98","w":1741},"n":{"d":"636,-1002v217,-51,351,88,351,306r0,565v1,59,79,44,133,51r0,80r-452,0r0,-80v52,-7,129,9,129,-51r0,-533v-2,-134,-57,-199,-197,-198v-87,0,-162,28,-225,59r0,672v0,58,77,44,129,51r0,80r-463,0r0,-80v55,-9,143,14,143,-51r0,-711r-143,0r0,-67r250,-78r84,0r0,102r87,-47v54,-28,113,-56,174,-70","w":1161},"o":{"d":"679,-103v230,-151,208,-829,-120,-817v-212,7,-274,206,-274,426v0,173,49,317,152,390v66,47,175,45,242,1xm917,-860v107,113,169,371,93,572v-68,182,-213,313,-455,313v-241,0,-384,-130,-451,-311v-45,-124,-45,-286,0,-410v69,-183,212,-313,457,-316v160,-2,275,67,356,152","w":1114},"p":{"d":"375,-102v85,35,227,43,312,-2v150,-79,221,-309,165,-524v-34,-130,-110,-240,-268,-240v-85,0,-150,32,-209,61r0,705xm375,-885v102,-86,295,-178,459,-91v148,79,241,241,241,468v0,256,-115,419,-301,495v-111,45,-272,45,-399,19r0,305v0,26,21,41,45,43r121,13r0,79r-498,0r0,-79v51,-14,141,6,141,-56r0,-1153r-141,0r0,-67r252,-78r80,0r0,102","w":1145},"q":{"d":"444,-130v82,50,227,34,318,5r0,-770v-40,-8,-89,-23,-141,-23v-292,0,-388,280,-327,568v21,99,74,173,150,220xm412,-974v152,-55,379,-41,540,-5r0,1294v4,60,89,42,142,54r0,77r-496,0r0,-77v50,-9,117,1,152,-24v9,-6,12,-17,12,-30r0,-370v-117,59,-315,118,-457,41v-146,-79,-235,-236,-235,-455v0,-272,136,-431,342,-505","w":1124},"r":{"d":"580,-989v62,-40,145,-17,200,8r0,203r-80,0v-26,-28,-57,-58,-110,-56v-92,4,-148,66,-205,127r0,576v4,71,114,40,178,51r0,80r-512,0r0,-78v55,-10,144,12,144,-53r0,-711r-148,0r0,-67r254,-78r84,0r0,182r53,-59v41,-45,91,-92,142,-125","w":801},"s":{"d":"436,-913v-125,0,-193,87,-154,198v106,177,463,145,463,418v0,225,-161,320,-391,322v-108,1,-208,-24,-284,-52r0,-272r104,0r25,174v44,27,106,57,182,57v133,0,233,-116,167,-232v-90,-158,-373,-155,-449,-332v-10,-24,-15,-52,-15,-83v0,-210,153,-297,369,-297v100,0,193,19,262,47r0,242r-107,0r-16,-143v-31,-23,-98,-47,-156,-47","w":815},"t":{"d":"541,-90v59,0,103,-15,141,-35r0,82v-75,36,-165,68,-276,68v-158,0,-219,-69,-220,-230r0,-680r-131,0r0,-67r140,-66r92,-217r90,0r0,248r289,0r0,102r-289,0r0,572v0,133,35,223,164,223","w":696},"u":{"d":"575,-115v88,-1,161,-33,222,-61r0,-686r-144,0r0,-70r250,-80r84,0r0,881v2,58,81,45,135,51r0,80r-325,0r0,-117v-85,61,-188,142,-328,142v-201,0,-283,-126,-283,-332r0,-555r-143,0r0,-70r252,-80r82,0r0,666v0,144,54,232,198,231","w":1165},"v":{"d":"954,-895r-358,895r-133,0r-330,-895r-113,-12r0,-80r453,0r0,80v-49,9,-152,-12,-129,51r229,641r252,-641v17,-60,-70,-44,-120,-51r0,-80r358,0r0,80","w":1083},"w":{"d":"1479,-895r-281,895r-145,0r-242,-766r-270,766r-146,0r-262,-895r-113,-12r0,-80r449,0r0,80v-49,9,-144,-13,-127,51r170,637r264,-768r146,0r237,768r189,-637v14,-61,-72,-44,-123,-51r0,-80r358,0r0,80","w":1604},"x":{"d":"584,0r0,-80v34,-8,102,6,88,-45r-176,-262r-201,262v-11,12,-5,36,12,37r103,8r0,80r-390,0r0,-80r117,-16r293,-381r-278,-412r-121,-18r0,-80r450,0r0,80v-35,10,-104,-5,-92,47r162,229r178,-229v12,-13,3,-35,-14,-37r-88,-10r0,-80r368,0r0,80r-110,18r-275,350r303,443r111,16r0,80r-440,0","w":1044},"y":{"d":"309,317v74,-80,132,-206,172,-319r-348,-893r-113,-12r0,-80r453,0r0,80v-49,9,-139,-15,-129,51r238,604r243,-604v17,-61,-74,-44,-125,-51r0,-80r365,0r0,80r-107,12r-421,1025v-57,122,-118,261,-239,318v-97,45,-247,17,-247,-96v0,-60,27,-90,66,-123","w":1085},"z":{"d":"70,0r0,-109r542,-782r-356,0v-20,-1,-39,26,-41,43r-20,152r-105,0r0,-291r758,0r0,84r-561,805r413,0v24,-4,42,-25,45,-49r21,-162r111,0r0,309r-807,0","w":946},"{":{"d":"858,252v-190,1,-352,-34,-408,-168v-56,-134,-4,-364,-54,-519v-32,-100,-139,-116,-273,-114r0,-92v134,2,240,-14,273,-114v57,-172,-31,-468,106,-597v75,-71,211,-89,356,-90r0,84v-111,3,-214,27,-240,119v-43,151,21,401,-77,526v-52,66,-126,95,-217,117v164,31,275,127,274,326r2,160v0,116,14,217,98,250v45,18,103,27,160,28r0,84","w":999},"|":{"d":"300,528r0,-2158r124,0r0,2158r-124,0","w":724},"}":{"d":"877,-549v-143,-1,-239,12,-274,114v-58,172,32,468,-105,597v-76,71,-210,89,-357,90r0,-84v111,-3,215,-27,241,-119v42,-152,-21,-401,77,-526v51,-66,127,-98,217,-119v-168,-31,-276,-126,-276,-324r0,-160v0,-116,-14,-217,-99,-250v-45,-18,-103,-27,-160,-28r0,-84v191,-1,352,34,409,169v56,133,2,363,53,518v33,102,132,115,274,114r0,92","w":999},"~":{"d":"1147,-602v158,0,257,-68,383,-158r0,133v-112,74,-212,144,-385,144v-225,0,-363,-138,-592,-138v-146,0,-270,83,-377,160r0,-133v117,-83,230,-145,389,-145v221,0,366,137,582,137","w":1706},"\u00c7":{"d":"771,129v104,-27,200,24,195,137v-6,136,-100,195,-238,195v-56,0,-107,-9,-151,-21r0,-80v88,21,250,41,256,-67v4,-70,-87,-91,-143,-64r0,-202v-323,-47,-522,-239,-589,-533v-92,-407,103,-730,403,-848v170,-67,414,-63,585,-7r115,34r0,321r-123,0r-30,-186v-22,-66,-100,-83,-173,-94v-277,-42,-454,118,-526,336v-48,144,-48,370,-2,516v71,225,250,385,550,349v61,-7,127,-18,138,-71r47,-223r119,0r0,332v-112,43,-268,83,-433,80r0,96","w":1284},"\u00d6":{"d":"536,-1825v67,0,112,45,112,112v0,67,-44,115,-112,115v-67,0,-111,-47,-111,-113v0,-66,45,-114,111,-114xm962,-1825v66,0,110,46,110,112v0,67,-43,115,-110,115v-68,0,-113,-47,-113,-115v0,-65,47,-112,113,-112xm1073,-260v137,-192,140,-653,-1,-852v-69,-98,-166,-178,-322,-178v-245,0,-358,167,-409,370v-57,227,-17,516,81,659v68,100,165,180,323,181v159,0,258,-81,328,-180xm1370,-966v64,171,64,389,-1,560v-94,249,-289,439,-619,439v-331,0,-528,-186,-622,-435v-64,-170,-65,-395,-1,-567v93,-251,288,-438,621,-438v332,0,528,192,622,441","w":1497},"\u00dc":{"d":"538,-1825v67,0,112,45,112,112v0,67,-44,115,-112,115v-67,0,-111,-47,-111,-113v0,-66,45,-114,111,-114xm964,-1825v66,0,110,46,110,112v0,67,-43,115,-110,115v-68,0,-113,-47,-113,-115v0,-65,47,-112,113,-112xm770,-104v258,0,350,-152,350,-404r0,-725v-4,-65,-102,-43,-162,-53r0,-88r445,0r0,88v-60,12,-162,-16,-162,53r0,778v1,339,-187,488,-526,488v-334,1,-500,-160,-500,-488r0,-778v-2,-63,-95,-44,-152,-53r0,-88r521,0r0,88v-59,11,-160,-16,-160,53r0,725v-4,256,85,404,346,404","w":1458},"\u00e7":{"d":"566,129v104,-27,200,24,195,137v-6,136,-100,195,-238,195v-56,0,-107,-9,-151,-21r0,-80v88,21,250,41,256,-67v4,-70,-87,-91,-143,-64r0,-207v-202,-21,-321,-140,-382,-305v-47,-128,-40,-310,7,-431v80,-205,294,-343,578,-284v103,21,193,73,193,191v0,76,-47,118,-121,121v-44,1,-76,-19,-103,-35r0,-178v-56,-38,-147,-27,-209,4v-185,94,-223,495,-84,671v54,69,136,121,254,120v114,-1,189,-38,267,-89r0,117v-92,47,-187,93,-319,100r0,105","w":954},"\u00f6":{"d":"345,-1425v67,0,112,45,112,112v0,67,-44,115,-112,115v-67,0,-111,-47,-111,-113v0,-66,45,-114,111,-114xm771,-1425v66,0,110,46,110,112v0,67,-43,115,-110,115v-68,0,-113,-47,-113,-115v0,-65,47,-112,113,-112xm679,-103v230,-151,208,-829,-120,-817v-212,7,-274,206,-274,426v0,173,49,317,152,390v66,47,175,45,242,1xm917,-860v107,113,169,371,93,572v-68,182,-213,313,-455,313v-241,0,-384,-130,-451,-311v-45,-124,-45,-286,0,-410v69,-183,212,-313,457,-316v160,-2,275,67,356,152","w":1114},"\u00fc":{"d":"370,-1425v67,0,112,45,112,112v0,67,-44,115,-112,115v-67,0,-111,-47,-111,-113v0,-66,45,-114,111,-114xm796,-1425v66,0,110,46,110,112v0,67,-43,115,-110,115v-68,0,-113,-47,-113,-115v0,-65,47,-112,113,-112xm575,-115v88,-1,161,-33,222,-61r0,-686r-144,0r0,-70r250,-80r84,0r0,881v2,58,81,45,135,51r0,80r-325,0r0,-117v-85,61,-188,142,-328,142v-201,0,-283,-126,-283,-332r0,-555r-143,0r0,-70r252,-80r82,0r0,666v0,144,54,232,198,231","w":1165},"\u0131":{"d":"70,0r0,-80v55,-9,143,14,143,-51r0,-731r-141,0r0,-72r250,-78r81,0r0,881v2,63,91,43,148,51r0,80r-481,0","w":621},"\u20b3":{"d":"361,-507r379,0r-35,-115r-310,0xm425,-722r250,0r-126,-421xm943,-407r80,264v5,53,65,39,108,55r0,88r-390,0r0,-88r95,-10v10,2,20,-26,17,-35r-83,-274r-438,0r-79,268v-3,19,7,39,23,41r97,10r0,88r-330,0r0,-88r95,-25r87,-294r-115,0r0,-100r144,0r34,-115r-178,0r0,-100r208,0r202,-685r123,0r206,685r208,0r0,100r-178,0r34,115r144,0r0,100r-114,0"},"\u20ac":{"d":"1073,-47v-140,70,-408,114,-578,33v-202,-96,-326,-286,-367,-538r-168,0r20,-93r139,0v-2,-29,-2,-62,0,-92r-159,0r20,-94r148,0v37,-260,168,-446,377,-535v140,-60,339,-46,471,5r97,34r0,321r-104,0r-26,-186v-16,-64,-85,-74,-146,-94v-297,-35,-433,183,-471,455r471,0r-20,94r-458,0r0,92r441,0r-19,93r-415,0v25,211,109,367,269,440v97,44,264,44,327,-20v6,-7,9,-15,10,-24r40,-223r101,0r0,332"},"\u20a1":{"d":"714,-1374v27,0,51,1,75,4r46,-167r94,0r-50,181v68,15,139,39,204,59r0,306r-111,0r-27,-178v-11,-45,-55,-57,-97,-73r-297,1094v103,53,291,59,371,-9v7,-6,10,-15,11,-23r42,-213r108,0r0,317v-136,60,-391,108,-565,48r-48,177r-98,0r58,-211v-23,-11,-43,-22,-63,-35r-67,246r-98,0r85,-308v-127,-121,-216,-291,-216,-531v0,-296,128,-496,322,-605v67,-37,142,-62,225,-73r47,-169r94,0xm583,-1241v-202,76,-299,272,-301,551v0,126,20,234,61,325xm759,-1262v-25,0,-51,-3,-75,0r-274,1005v19,22,38,41,58,57"},"\u20a0":{"d":"847,-315v-12,-41,1,-105,-38,-117r-179,0r0,367r317,0v11,1,22,-17,24,-25r24,-132r71,0r0,222r-670,0r0,-57v38,-6,98,7,98,-35r0,-334v-201,-25,-327,-149,-380,-318v-87,-279,47,-535,249,-624v138,-61,332,-32,455,13r0,209r-80,0r-20,-121v-12,-34,-32,-40,-73,-51v-303,-83,-461,237,-388,554v30,131,109,225,237,259r0,-296v-2,-40,-60,-30,-98,-35r0,-57r627,0r0,198r-80,0v-10,-42,-11,-93,-29,-127v-4,-5,-9,-7,-16,-7r-268,0r0,331r179,0v12,1,22,-12,24,-23r14,-91r68,0r0,297r-68,0"},"\u20a2":{"d":"724,-114v14,69,131,16,169,-1v20,-9,32,-22,35,-41r42,-223r108,0r0,332v-135,62,-381,112,-560,53v-235,-77,-382,-258,-433,-512v-79,-395,83,-725,363,-848v153,-67,373,-62,526,-7r104,34r0,321r-111,0r-27,-186v-19,-63,-89,-83,-156,-94v-259,-42,-410,126,-473,336v-56,186,-41,473,37,623v50,96,116,166,203,207v17,-2,30,-15,30,-34r0,-482r-111,0r0,-51r191,-58r63,0r0,136r40,-45v43,-44,88,-103,162,-110v30,-3,75,13,94,23r0,153r-60,0v-20,-22,-42,-44,-83,-42v-68,3,-111,49,-153,95r0,421"},"\u20b5":{"d":"581,-1252v-224,64,-324,272,-324,563v0,292,98,501,324,568r0,-1131xm678,-1373v133,4,228,40,334,76r0,306r-104,0r-26,-177v-17,-62,-83,-72,-144,-90v-18,-5,-39,-6,-60,-6r0,1157v78,1,141,-15,182,-50v6,-7,10,-15,11,-23r40,-213r101,0r0,317v-85,37,-208,74,-334,76r0,211r-97,0r0,-216v-264,-37,-417,-213,-489,-443v-78,-252,-12,-558,108,-704v89,-108,213,-195,381,-216r0,-154r97,0r0,149"},"\u20ab":{"d":"188,250r0,-103r783,0r0,103r-783,0xm443,-144v108,59,260,13,337,-42r0,-697v-89,-29,-224,-46,-312,-1v-126,64,-196,195,-196,382v0,171,60,297,171,358xm362,-966v112,-51,290,-55,418,-21r0,-119r-297,0r0,-102r297,0r0,-154r-155,0r0,-68r264,-79r82,0r0,301r184,0r0,102r-184,0r0,975v0,59,78,44,131,51r0,80r-322,0r0,-109v-86,63,-175,134,-317,134v-215,0,-327,-143,-371,-317v-78,-307,51,-574,270,-674","w":1155},"\u20af":{"d":"340,-180v-30,-39,-53,-86,-108,-91v-133,-13,-156,244,-27,244v81,0,108,-81,135,-153xm1288,-280v-73,0,-127,43,-127,115v0,72,54,115,127,115v73,0,127,-43,127,-115v0,-72,-54,-115,-127,-115xm1134,-45v-38,127,-63,234,-115,354r-106,-4v68,-151,97,-327,150,-492v33,-102,110,-156,247,-152v111,3,195,56,197,168v3,119,-90,183,-215,180v-65,-1,-134,-12,-158,-54xm619,-29v244,0,290,-225,290,-475v0,-155,-76,-255,-192,-303v-130,170,-183,435,-280,635v50,57,84,143,182,143xm161,-744v122,-98,285,-167,502,-144v79,-83,173,-149,297,-184r37,47v-94,35,-167,90,-230,158v161,51,291,152,291,358v0,322,-132,527,-455,527v-105,0,-160,-57,-207,-117v-49,71,-95,112,-201,112v-86,0,-145,-61,-145,-153v0,-113,77,-171,192,-171v54,0,91,27,122,55v53,-219,127,-421,248,-573v-177,-9,-320,47,-417,127","w":1557},"\u20a3":{"d":"453,-852r409,0r0,100r-409,0r0,115r409,0r0,100r-409,0r0,396v1,23,17,44,43,45r137,8r0,88r-538,0r0,-88v57,-10,151,13,151,-53r0,-396r-168,0r0,-100r168,0r0,-115r-168,0r0,-100r168,0r0,-381v-1,-23,-17,-44,-43,-45r-125,-8r0,-88r996,0r0,325r-121,0r-29,-188v-4,-18,-15,-37,-35,-37r-436,0r0,422"},"\u011f":{"d":"505,-1266v123,0,200,-61,223,-166r82,0v-4,136,-73,230,-172,277v-73,35,-194,35,-267,0v-100,-48,-167,-140,-171,-277r80,0v23,106,102,166,225,166xm410,-55v-108,33,-192,137,-140,271v36,93,121,159,252,159v138,0,228,-66,272,-159v40,-85,1,-169,-60,-199v-86,-43,-213,-54,-324,-72xm506,-426v135,0,190,-113,190,-252v0,-135,-57,-250,-190,-250v-138,0,-195,109,-195,252v0,140,58,250,195,250xm369,-356v-143,-38,-254,-132,-254,-308v0,-237,170,-348,411,-348v97,0,170,32,238,62r276,0r0,100r-204,0v57,76,77,233,18,328v-73,118,-214,190,-405,180v-21,33,-27,91,-17,137r105,11v172,20,349,52,421,172v85,142,-35,297,-126,370v-144,116,-496,174,-661,38v-57,-47,-101,-114,-101,-208v0,-147,88,-223,217,-248v-51,-107,7,-219,82,-286","w":1075},"\u011e":{"d":"766,-1666v123,0,200,-61,223,-166r82,0v-4,136,-73,230,-172,277v-73,35,-194,35,-267,0v-100,-48,-167,-140,-171,-277r80,0v23,106,102,166,225,166xm621,-124v112,51,282,51,397,11r0,-409v-1,-24,-17,-42,-43,-43r-137,-10r0,-89r534,0r0,89v-54,12,-147,-11,-147,53r0,473v-168,64,-430,115,-641,55v-254,-73,-421,-249,-483,-510v-67,-281,30,-562,177,-706v156,-153,457,-239,755,-174r190,47r0,331r-123,0r-33,-184v-14,-56,-76,-63,-126,-82v-99,-37,-238,-22,-331,19v-192,85,-297,275,-297,553v0,290,108,485,308,576","w":1423},"\u20b2":{"d":"647,-78v65,4,117,-16,163,-30r0,-390v1,-44,-46,-46,-84,-51r0,-84r368,0r0,84v-45,10,-118,-6,-118,51r0,451v-91,40,-201,73,-329,78r0,180r-97,0r0,-186v-249,-40,-392,-216,-458,-442v-71,-247,-14,-552,98,-700v83,-109,200,-192,360,-217r0,-188r97,0r0,180v131,-1,228,34,327,67r0,315r-98,0r-26,-175v-18,-63,-88,-72,-149,-92v-17,-5,-35,-6,-54,-6r0,1155xm550,-1220v-214,65,-304,271,-304,552v0,289,87,502,304,574r0,-1126"},"\u0130":{"d":"339,-1830v70,0,114,48,114,117v0,69,-45,115,-114,115v-69,0,-115,-46,-115,-115v0,-70,45,-117,115,-117xm68,0r0,-88v61,-12,165,17,165,-53r0,-1092v-4,-65,-106,-40,-165,-51r0,-90r540,0r0,90v-61,12,-168,-17,-168,51r0,1092v1,23,18,44,43,45r125,8r0,88r-540,0","w":676},"\u20ad":{"d":"681,-610r297,512r126,10r0,88r-305,0r0,-63r-324,-547r-122,0r0,469v0,22,16,44,39,45r99,8r0,88r-442,0r0,-88v50,-9,127,10,128,-53r0,-469r-128,0r0,-100r128,0r0,-523v0,-22,-13,-43,-36,-45r-92,-8r0,-88r442,0r0,88v-53,9,-138,-11,-138,53r0,523r72,0r370,-531v10,-12,-3,-34,-13,-35r-89,-10r0,-88r368,0r0,88r-118,16r-355,500r35,60r438,0r0,100r-380,0"},"\u20b0":{"d":"471,-1323v-50,0,-56,61,-56,118v0,109,29,197,64,277v25,-100,49,-207,47,-319v-1,-54,-10,-76,-55,-76xm476,-69v166,-40,157,-296,96,-449v-28,-71,-61,-138,-98,-200r-59,181v-20,60,-38,120,-54,181r-77,-197r-100,197r-92,0r207,-399r73,184r66,-209r-59,-98v-49,-87,-100,-176,-100,-304v0,-120,62,-210,187,-210v86,0,120,52,120,141v0,146,-35,276,-70,399v87,180,231,326,231,581v0,162,-117,215,-261,238","w":910},"\u20a4":{"d":"307,-637r-2,-115r-187,0r0,-100r187,0v-7,-252,73,-431,242,-515v112,-55,301,-50,405,9v58,32,113,82,113,168v0,98,-103,135,-201,106r0,-205v-30,-6,-58,-16,-92,-16v-239,3,-278,209,-274,453r337,0r0,100r-333,0r5,115r328,0r0,100r-330,0v-13,187,-93,301,-220,381v242,-22,518,-9,778,-12r0,168r-975,0r0,-125v171,-41,231,-194,222,-412r-192,0r0,-100r189,0"},"\u20a5":{"d":"753,-859v-42,9,-85,29,-114,54r0,152xm398,-862v-60,0,-107,30,-142,59r0,672v-3,41,29,48,64,51r0,3r195,-352r0,-237v-2,-102,-19,-196,-117,-196xm473,-1012v88,0,119,76,146,142v59,-53,127,-120,218,-141r90,-162r94,0r-100,180v78,50,101,168,101,295r0,567v-1,23,10,43,28,45r64,6r0,80r-278,0r0,-80v34,-3,64,-9,64,-51r0,-522v-1,-86,-12,-158,-60,-192r-201,366r0,348v-2,40,29,48,64,51r0,80r-252,0r0,-80v34,-3,64,-9,64,-51r0,-123r-222,403r-98,0r82,-149r-238,0r0,-80v42,-5,93,5,93,-51r0,-711r-92,0r0,-67r161,-78r55,0r0,102v59,-50,119,-127,217,-127"},"\u20a6":{"d":"860,-293r0,-257r-119,0xm300,-865r131,0r-131,-282r0,282xm694,-650r166,0r0,-115r-219,0xm300,-650r231,0r-54,-115r-177,0r0,115xm1055,-1286v-46,8,-110,-7,-110,53r0,368r110,0r0,100r-110,0r0,115r110,0r0,100r-110,0r0,550r-112,0r-256,-550r-277,0r0,409v0,20,10,44,30,45r82,8r0,88r-310,0r0,-88v46,-8,114,7,113,-53r0,-409r-116,0r0,-100r116,0r0,-115r-116,0r0,-100r116,0r0,-368v0,-20,-12,-44,-32,-45r-84,-8r0,-88r284,0r0,51r212,458r265,0r0,-368v0,-20,-11,-44,-30,-45r-82,-8r0,-88r307,0r0,88"},"\u20b1":{"d":"961,-997v2,39,0,79,-4,115r132,0r0,100r-156,0v-67,200,-274,299,-549,260r0,381v0,22,14,44,37,45r114,8r0,88r-457,0r0,-88v51,-9,130,9,130,-53r0,-641r-143,0r0,-100r143,0r0,-115r-143,0r0,-100r143,0v-4,-55,10,-125,-10,-165v-24,-29,-89,-15,-133,-24r0,-88r417,0v254,-2,425,69,467,277r140,0r0,100r-128,0xm762,-1097v-40,-142,-181,-192,-378,-175r0,175r378,0xm384,-627v90,17,197,15,264,-27v45,-28,81,-70,104,-128r-368,0r0,155xm776,-882r4,-115r-396,0r0,115r392,0"},"\u20a7":{"d":"487,-616v216,0,314,-124,317,-342v4,-250,-158,-337,-421,-314r0,645v30,3,70,11,104,11xm1805,-913v-143,0,-193,163,-105,247v122,118,383,133,383,369v0,215,-134,322,-351,322v-93,0,-177,-21,-243,-46v-49,21,-128,47,-204,46v-148,-3,-197,-75,-198,-230r0,-680r-97,0v-36,282,-278,405,-607,363r0,381v1,22,15,44,39,45r122,8r0,88r-485,0r0,-88v53,-9,138,11,138,-53r0,-1092v0,-22,-16,-44,-40,-45r-111,-8r0,-88r441,0v316,-4,510,97,508,409r100,-53r83,-217r81,0r0,248r260,0r0,102r-260,0r0,572v1,127,26,222,148,223v26,0,49,-3,69,-10r0,-199r94,0r22,174v39,26,95,57,164,57v126,0,207,-120,150,-232v-90,-177,-417,-151,-417,-415v0,-200,128,-297,332,-297v91,0,174,19,235,47r0,242r-96,0r-14,-143v-28,-23,-87,-47,-141,-47","w":2146},"\u20a8":{"d":"382,-713v248,19,409,-43,409,-288v0,-229,-166,-286,-409,-273r0,561xm1544,-913v-143,0,-193,163,-105,247v122,118,383,133,383,369v0,215,-134,319,-351,322v-99,1,-188,-24,-256,-52r0,-272r94,0r22,174v39,26,95,57,164,57v126,0,207,-120,150,-232v-90,-177,-417,-151,-417,-415v0,-200,128,-297,332,-297v91,0,174,19,235,47r0,242r-96,0r-14,-143v-28,-23,-87,-47,-141,-47xm992,-1010v-1,212,-135,298,-303,342v164,38,224,163,252,332v24,146,76,256,255,250r0,92v-39,9,-74,26,-121,27v-320,9,-261,-358,-387,-545v-54,-79,-168,-114,-306,-96r0,467v1,22,14,43,38,45r97,8r0,88r-458,0r0,-88v53,-9,136,10,136,-53r0,-1092v0,-22,-16,-43,-40,-45r-96,-8r0,-88r481,0v273,0,453,91,452,364","w":1885},"\u015f":{"d":"448,129v104,-27,200,24,195,137v-6,136,-100,195,-238,195v-56,0,-107,-9,-151,-21r0,-80v88,21,250,41,256,-67v4,-70,-87,-91,-143,-64r0,-204v-114,2,-217,-22,-297,-52r0,-272r104,0r25,174v44,27,106,57,182,57v133,0,233,-116,167,-232v-90,-158,-373,-155,-449,-332v-10,-24,-15,-52,-15,-83v0,-210,153,-297,369,-297v100,0,193,19,262,47r0,242r-107,0r-16,-143v-31,-23,-98,-47,-156,-47v-125,0,-193,87,-154,198v106,177,463,145,463,418v0,194,-122,288,-297,315r0,111","w":815},"\u015e":{"d":"584,129v104,-27,200,24,195,137v-6,136,-100,195,-238,195v-56,0,-107,-9,-151,-21r0,-80v88,21,250,41,256,-67v4,-70,-87,-91,-143,-64r0,-198v-168,10,-315,-23,-423,-74r0,-363r129,0r27,232v20,61,87,73,156,85v200,33,386,-41,386,-235v0,-95,-63,-149,-124,-192v-172,-121,-434,-156,-526,-356v-39,-85,-28,-215,10,-299v88,-195,367,-280,642,-211v56,14,104,29,156,45r0,319r-117,0r-31,-196v-33,-62,-113,-82,-210,-82v-161,0,-265,85,-265,241v0,120,78,172,163,217v210,111,511,145,511,453v0,247,-175,368,-403,408r0,106","w":1067},"\u20b4":{"d":"358,-315v-13,228,277,282,452,186v12,-7,30,-30,32,-45r32,-222r116,0r-13,353v-87,44,-194,76,-329,76v-281,0,-476,-109,-476,-374v0,-90,23,-154,59,-211r-109,0r0,-100r201,0v54,-44,113,-79,179,-115r-370,0r0,-100r541,0v71,-54,121,-109,127,-218v10,-189,-203,-254,-371,-185v-27,11,-46,28,-51,56r-35,196r-105,0r10,-319v90,-40,192,-71,327,-70v242,4,411,95,415,335v1,84,-19,149,-49,205r89,0r0,100r-164,0v-42,46,-94,81,-148,115r302,0r0,100r-480,0v-83,56,-175,108,-182,237"},"\u20ae":{"d":"967,-1047r-25,-192v-2,-18,-11,-34,-29,-35r-249,0r0,426r186,-125r56,80r-242,164r0,97r186,-125r56,80r-242,164r0,372v0,22,14,44,37,45r111,8r0,88r-471,0r0,-88v55,-11,147,15,147,-53r0,-254r-184,124r-52,-84r236,-158r0,-98r-184,124r-52,-84r236,-158r0,-545r-250,0v-18,0,-28,17,-30,35r-24,192r-101,0r0,-327r987,0r0,327r-103,0"},"\u20a9":{"d":"536,-867r84,0r-42,-235xm358,-309r44,-243r-83,0xm843,-276r39,-276r-89,0xm304,-652r116,0r21,-115r-155,0xm498,-652r161,0r-21,-115r-119,0xm775,-652r122,0r16,-115r-159,0xm1061,-1262r-58,395r133,0r0,100r-147,0r-17,115r164,0r0,100r-178,0r-85,585r-90,0r-106,-585r-196,0r-104,585r-89,0r-91,-585r-181,0r0,-100r166,0r-18,-115r-148,0r0,-100r132,0r-61,-395r-71,-24r0,-88r281,0r0,88r-73,12v-12,3,-14,25,-12,41r58,366r189,0r92,-507r94,0r91,507r192,0r52,-366v3,-17,-4,-39,-18,-41r-77,-12r0,-88r251,0r0,88"},"\u20aa":{"d":"543,-915v120,1,164,47,165,167r1,497r-133,0r0,-471v0,-40,-20,-60,-60,-60r-338,0r0,782r-133,0r0,-915r498,0xm975,-166v-1,120,-47,166,-167,166r-497,0r0,-649r133,0r0,516r338,0v40,0,60,-20,60,-60r0,-722r133,0r0,749","w":1025},"\u00a0":{"w":600}}});
