// #### Generated By: http://www.cufonfonts.com ####
/*!
 * The following copyright notice may not be removed under any circumstances.
 * 
 * Copyright:
 * Copyright 2001 by Herman Miller. Distribute freely.
 */
Cufon.registerFont({"w":960,"face":{"font-family":"Thryomanes Normal","font-weight":400,"font-stretch":"normal","units-per-em":"2048","panose-1":"0 0 5 0 0 0 0 0 0 0","ascent":"1638","descent":"-410","x-height":"12","bbox":"-161.236 -1834 1958 513","underline-thickness":"41","underline-position":"-252","unicode-range":"U+0020-U+20AC"},"glyphs":{" ":{"w":615},"!":{"d":"204,-220v64,0,121,57,121,121v0,63,-58,121,-121,121v-64,0,-122,-57,-122,-121v0,-65,57,-121,122,-121xm204,-1538v27,-3,120,48,114,74v10,215,-96,887,-101,1038r-26,0v-6,-149,-112,-826,-102,-1038v-5,-26,87,-77,115,-74","w":463},"\"":{"d":"177,-1425v25,-4,93,62,89,87v7,114,-72,438,-76,515r-26,0v-3,-77,-83,-404,-76,-515v-4,-26,64,-91,89,-87xm572,-1425v25,-4,93,62,89,87v7,113,-72,437,-76,515r-26,0v-4,-76,-84,-403,-76,-515v-4,-26,64,-91,89,-87","w":793},"#":{"d":"999,-953r-17,89r-203,0r-68,350r203,0r-18,90r-203,0r-82,424r-89,0r82,-424r-331,0r-83,424r-89,0r82,-424r-197,0r17,-90r198,0r68,-350r-198,0r18,-89r197,0r91,-465r89,0r-90,465r331,0r91,-465r89,0r-91,465r203,0xm690,-864r-332,0r-68,350r332,0","w":1070},"$":{"d":"549,-1434v38,0,165,39,208,39v21,0,37,-9,48,-27r38,0r64,422r-45,0v-51,-207,-119,-331,-313,-366r0,526v135,86,228,153,277,201v92,91,138,191,138,300v0,227,-179,365,-415,356r0,205r-62,0r0,-210v-20,-1,-208,-35,-257,-35v-17,0,-32,6,-45,19r-32,0r-57,-351r38,-13v40,173,169,307,353,329r0,-617v-121,-79,-206,-143,-255,-194v-87,-88,-130,-181,-130,-280v0,-180,199,-289,385,-302r0,-196r62,0r0,194xm487,-1370v-134,-6,-220,87,-219,217v0,85,73,176,219,272r0,-489xm549,-36v152,1,265,-122,262,-275v0,-59,-31,-118,-93,-178v-34,-33,-90,-75,-169,-127r0,580","w":1016},"%":{"d":"1304,-686v175,0,290,170,290,357v0,194,-111,355,-292,355v-162,0,-287,-172,-287,-344v0,-200,102,-368,289,-368xm396,-1434v176,0,291,171,291,358v0,194,-112,354,-293,354v-160,0,-286,-172,-286,-344v0,-199,101,-368,288,-368xm1125,-351v0,149,71,335,200,335v105,0,158,-82,158,-246v0,-100,-13,-184,-39,-251v-34,-90,-87,-135,-159,-135v-107,0,-160,99,-160,297xm218,-1099v0,149,70,335,199,335v105,0,158,-82,158,-245v0,-100,-13,-184,-38,-251v-34,-90,-87,-135,-159,-135v-107,0,-160,99,-160,296xm1407,-1386r-991,1386r-77,-33r971,-1379","w":1657},"&":{"d":"1024,-333v89,139,119,210,297,210v95,0,153,-50,175,-149v8,9,21,18,39,25v-39,188,-131,266,-352,268v-89,0,-182,-68,-280,-204v-141,145,-311,217,-511,217v-182,0,-339,-249,-339,-440v0,-111,109,-266,328,-465v-78,-107,-117,-197,-117,-270v0,-179,128,-300,307,-300v183,0,274,77,274,230v0,36,-36,91,-108,166v-12,12,-64,61,-156,147v129,146,296,322,392,481v147,-213,221,-339,221,-376v0,-43,-38,-68,-113,-73r19,-51r409,0r-19,51v-160,13,-202,60,-268,185r-93,177v-37,66,-72,123,-105,171xm571,-1364v-88,-2,-167,103,-167,193v0,38,35,100,105,187v63,-54,208,-156,208,-233v0,-106,-40,-144,-146,-147xm238,-395v0,169,144,308,313,308v94,0,194,-58,299,-174v-84,-128,-215,-300,-394,-515v-145,149,-218,276,-218,381","w":1585},"'":{"d":"177,-1425v25,-4,93,62,89,87v7,114,-72,438,-76,515r-26,0v-3,-77,-83,-404,-76,-515v-4,-26,64,-91,89,-87","w":398},"(":{"d":"613,436v-304,-150,-534,-483,-534,-911v0,-426,231,-763,534,-911r24,47v-257,160,-385,448,-385,864v0,415,128,703,385,863","w":734},")":{"d":"79,-1386v304,149,534,484,534,911v0,426,-231,763,-534,911r-23,-48v257,-160,385,-448,385,-863v0,-416,-128,-704,-385,-864","w":727},"*":{"d":"470,-926v1,-44,-60,-181,-60,-232v0,-78,22,-138,66,-180v68,69,86,182,40,296v-21,52,-30,91,-32,116v47,-28,124,-143,170,-171v43,-26,120,-43,184,-28v-25,91,-108,163,-234,181v-54,8,-92,19,-114,29v40,24,189,40,230,66v65,42,108,88,123,147v-66,14,-144,-3,-187,-30v-44,-28,-121,-147,-172,-173v-1,44,58,183,58,234v0,78,-22,138,-66,180v-69,-70,-86,-183,-38,-297v21,-51,30,-91,32,-117v-52,27,-133,143,-179,172v-44,27,-119,44,-187,31v27,-93,109,-165,242,-182v55,-7,93,-19,117,-31v-40,-22,-191,-37,-231,-63v-65,-42,-108,-88,-123,-147v64,-16,142,3,185,29v45,27,126,143,176,170","w":945},"+":{"d":"900,-667r-368,0r0,368r-94,0r0,-368r-368,0r0,-94r368,0r0,-368r94,0r0,368r368,0r0,94","w":962},",":{"d":"168,16v51,-3,107,-23,107,49v0,96,-58,175,-175,236v7,24,14,36,21,36v24,2,120,-70,132,-85v77,-100,115,-125,121,-255v5,-105,-61,-200,-161,-200v-69,0,-136,43,-136,110v0,56,39,112,91,109","w":549},"-":{"d":"713,-573r-646,0r0,-125r646,0r0,125","w":784},"\u2010":{"d":"713,-573r-646,0r0,-125r646,0r0,125","w":784},".":{"d":"209,-212v61,0,114,53,114,115v0,61,-53,114,-114,114v-62,0,-115,-53,-115,-114v0,-62,53,-115,115,-115","w":499},"\/":{"d":"723,-1400r-624,1415r-89,-19r631,-1415","w":737},"0":{"d":"878,-1186v131,278,132,644,-4,924v-87,180,-200,271,-345,271v-150,0,-267,-89,-350,-267v-130,-277,-131,-645,5,-924v87,-179,200,-270,345,-270v150,0,266,89,349,266xm830,-677v0,-479,-100,-719,-301,-719v-201,0,-301,210,-301,630v0,479,100,718,301,718v201,0,301,-210,301,-629","w":1130},"1":{"d":"523,-207v4,138,57,170,205,171r0,35r-583,0r0,-35v141,0,212,-57,212,-171r0,-1056v-64,37,-149,95,-220,113r-19,-44v134,-67,249,-148,345,-244r60,0r0,1231","w":861},"2":{"d":"963,-304v9,-1,37,18,44,19v0,13,-29,108,-88,285r-837,0r-19,-59v445,-359,668,-686,668,-980v0,-172,-78,-258,-234,-258v-173,0,-305,82,-396,245r-44,-19v58,-178,257,-356,474,-359v185,-2,337,134,337,315v0,297,-201,624,-603,981r547,0v37,0,72,-28,105,-85v33,-57,49,-85,46,-85","w":1089},"3":{"d":"588,-855v174,6,292,190,289,381v-5,361,-183,489,-559,491v-106,1,-233,-45,-233,-137v0,-43,36,-78,80,-78v46,0,94,22,145,67v51,45,102,67,153,67v179,0,269,-126,269,-377v0,-133,-84,-301,-207,-301v-67,0,-138,19,-213,57r-19,-51v93,-16,339,-229,339,-332v0,-119,-114,-226,-232,-226v-73,0,-172,59,-295,176r-31,-13v67,-103,124,-174,172,-214v70,-58,155,-87,254,-87v166,0,321,128,314,289v-7,165,-88,212,-226,288","w":925},"4":{"d":"979,-411r-233,0r0,411r-138,0r0,-411r-585,0r0,-63r673,-968r50,0r0,905r233,0r0,126xm608,-1209r-459,672r459,0r0,-672","w":978},"5":{"d":"480,-957v239,0,402,231,402,480v0,280,-253,512,-536,512v-128,0,-292,-55,-292,-165v0,-46,36,-84,82,-83v36,8,114,116,141,127v40,30,82,45,126,45v154,0,325,-274,325,-435v0,-217,-260,-482,-483,-327r-128,92r115,-707r496,0v31,0,50,-18,57,-54r38,12r-63,185r-471,0r-64,388v63,-47,148,-70,255,-70","w":964},"6":{"d":"534,-908v216,-12,430,237,430,456v0,243,-221,474,-464,474v-299,0,-477,-311,-477,-629v0,-214,76,-398,229,-552v128,-129,304,-231,528,-307r19,45v-336,119,-535,343,-596,672v124,-99,171,-150,331,-159xm514,-22v222,0,279,-183,279,-444v0,-186,-103,-384,-274,-384v-57,0,-115,18,-175,53v-21,12,-71,48,-150,109v-2,23,-3,48,-3,73v0,395,108,593,323,593","w":988},"7":{"d":"294,-1281v-80,-4,-195,122,-205,194r-32,-19r83,-312r822,0r0,69r-504,1349r-114,0r479,-1281r-529,0"},"8":{"d":"849,-1154v0,159,-150,304,-269,385v113,84,189,150,231,197v145,163,136,390,-44,507v-87,57,-191,87,-313,87v-253,0,-382,-114,-388,-343v-2,-88,32,-169,102,-244v42,-44,111,-96,206,-157v-103,-85,-161,-133,-173,-145v-137,-131,-119,-336,-2,-465v116,-128,386,-145,535,-36v76,56,115,126,115,214xm461,-1377v-136,0,-223,108,-223,248v0,63,33,123,98,181v1,1,60,44,176,128v123,-103,184,-211,184,-324v0,-134,-101,-233,-235,-233xm467,-35v153,0,317,-134,299,-280v-16,-130,-235,-272,-339,-361v-133,103,-201,200,-204,371v-2,157,89,270,244,270"},"9":{"d":"529,-1436v298,0,477,311,477,630v0,214,-76,398,-229,551v-128,129,-304,232,-528,307r-19,-44v336,-119,535,-343,596,-672v-124,98,-170,149,-331,158v-216,12,-431,-238,-431,-455v0,-243,222,-475,465,-475xm236,-947v0,185,102,383,274,383v57,0,115,-18,174,-53v21,-12,71,-48,150,-108v3,-23,4,-48,4,-74v0,-395,-108,-593,-323,-593v-223,0,-279,183,-279,445","w":1146},":":{"d":"209,-212v61,0,114,53,114,115v0,61,-53,114,-114,114v-62,0,-115,-53,-115,-114v0,-62,53,-115,115,-115xm209,-917v61,0,114,53,114,115v0,61,-53,114,-114,114v-62,0,-115,-53,-115,-114v0,-62,53,-115,115,-115","w":475},";":{"d":"213,-203v100,0,161,95,161,200v0,112,-125,304,-253,340v-7,0,-14,-12,-21,-36v117,-61,175,-140,175,-236v0,-71,-55,-53,-107,-49v-52,4,-91,-54,-91,-109v0,-66,67,-110,136,-110xm209,-917v61,0,114,53,114,115v0,61,-53,114,-114,114v-62,0,-115,-53,-115,-114v0,-62,53,-115,115,-115","w":508},"<":{"d":"868,-140r-63,76r-759,-640r759,-640r63,75r-671,565","w":896},"=":{"d":"937,-855r-830,0r0,-94r830,0r0,94xm937,-478r-830,0r0,-95r830,0r0,95","w":1044},">":{"d":"899,-704r-759,640r-63,-76r672,-564r-672,-565r63,-75","w":947},"?":{"d":"407,-1437v176,0,312,122,312,298v0,87,-29,164,-88,229v-9,10,-65,56,-167,142v-89,75,-107,120,-107,242v0,72,17,123,50,153r-51,19v-102,-150,-136,-295,-29,-433v24,-31,211,-155,234,-228v10,-30,18,-74,18,-135v2,-121,-68,-217,-185,-217v-68,0,-156,97,-166,159v-10,60,-41,90,-89,90v-40,0,-60,-25,-60,-76v0,-132,189,-243,328,-243xm368,-220v65,0,121,56,121,121v0,65,-56,121,-121,121v-65,0,-121,-56,-121,-121v0,-65,56,-121,121,-121","w":784},"@":{"d":"688,-995v-133,0,-257,216,-257,355v0,146,47,219,142,219v36,0,96,-24,179,-73r77,-376v-29,-83,-76,-125,-141,-125xm67,-690v0,359,276,648,633,648v318,0,535,-139,651,-416r56,43v-155,285,-311,427,-707,434v-424,8,-720,-296,-720,-719v0,-399,297,-758,687,-758v388,0,647,216,647,596v0,280,-174,516,-444,511v-55,0,-90,-27,-106,-81v-73,53,-140,79,-201,79v-170,-3,-222,-51,-227,-222v-6,-195,189,-477,378,-477v56,0,103,14,141,41r93,-55r-103,498v-11,67,-34,142,65,142v197,0,323,-223,323,-436v0,-305,-242,-528,-549,-528v-378,0,-617,310,-617,700","w":1471},"A":{"d":"1455,0r-586,0r0,-45v87,-7,219,32,209,-70v-13,-133,-99,-295,-140,-419v-9,-28,-24,-41,-43,-41r-394,0v-21,0,-36,12,-45,37r-88,217v-46,117,-69,186,-69,206v-2,47,32,70,82,70r131,0r0,45r-494,0r0,-45v130,10,161,-18,211,-150r443,-1167v7,-15,5,-37,-7,-46r6,-10r121,0r476,1258v42,96,56,114,187,115r0,45xm852,-665v24,6,21,-34,19,-47r-159,-420v-5,-16,-21,-26,-31,0v-111,301,-171,451,-171,454v0,9,4,13,11,13r331,0","w":1559},"B":{"d":"863,-799v246,55,372,146,376,418v4,266,-251,381,-547,381r-705,0r10,-37v91,-1,151,-8,178,-20v52,-23,78,-74,78,-153r0,-1019v0,-91,-78,-137,-234,-137r0,-46v167,-11,374,-17,621,-17v125,0,238,23,338,69v126,59,189,141,189,248v0,179,-101,283,-304,313xm612,-809v242,2,366,-46,366,-258v0,-205,-102,-308,-305,-308r-248,0r0,566r187,0xm662,-46v208,0,382,-140,382,-343v0,-230,-114,-377,-336,-376r-283,0r0,565v0,103,79,154,237,154","w":1321},"C":{"d":"810,-38v210,-4,414,-164,475,-328r41,12v-44,127,-108,232,-191,315v-204,33,-335,49,-393,49v-381,0,-704,-287,-704,-663v0,-418,325,-771,739,-771v139,0,263,28,375,77v53,23,67,38,98,9r31,2r14,302r-37,0v-49,-198,-240,-340,-481,-340v-327,0,-550,314,-550,654v0,354,241,688,583,682","w":1365},"D":{"d":"19,-42v139,1,193,-35,193,-166r0,-1056v5,-94,-80,-126,-184,-111r0,-39v107,-13,252,-19,435,-19v273,0,489,44,648,132v205,114,308,296,308,547v0,429,-319,754,-748,754r-652,0r0,-42xm671,-39v351,3,528,-303,528,-677v0,-485,-291,-706,-811,-667r0,1196v0,99,27,148,80,148r203,0","w":1563},"E":{"d":"232,-1251v-5,-129,-67,-128,-215,-134r0,-35r1057,0r11,307r-37,0v-16,-154,-66,-231,-149,-231r-486,0r0,564r387,0v62,0,102,-58,120,-175r33,0r0,432r-33,0v-22,-125,-62,-187,-120,-187r-387,0r0,519v0,74,28,111,85,111r423,0v100,0,166,-87,198,-260r40,3r-40,337r-1126,0r0,-37v159,-2,239,-47,239,-136r0,-1078","w":1262},"F":{"d":"728,-796v78,1,127,-68,125,-152r28,0r0,390r-28,0v0,-109,-42,-164,-125,-164r-373,0r0,543v0,89,60,134,181,134r0,45r-523,0r0,-45v111,0,166,-49,166,-146r0,-1078v0,-73,-55,-109,-166,-108r0,-43r981,0r24,286r-36,0v0,-133,-59,-199,-176,-199r-451,0r0,537r373,0","w":1054},"G":{"d":"202,-683v0,338,221,644,547,644v153,0,266,-31,340,-93r0,-361v0,-93,-61,-140,-183,-140r0,-40r488,0r0,40v-80,-3,-142,49,-142,126r0,388v-173,89,-357,134,-550,134v-386,0,-689,-286,-689,-668v0,-442,296,-781,732,-781v116,0,222,19,319,54v61,22,109,37,154,6r18,0r30,368r-38,0v-31,-228,-206,-379,-461,-379v-358,0,-565,324,-565,702","w":1391},"H":{"d":"1117,-1214v-4,-137,-57,-172,-205,-171r0,-35r577,0r0,35v-137,0,-206,57,-206,171r0,1007v4,138,59,171,205,171r0,35r-583,0r0,-35v141,0,212,-57,212,-171r0,-460r-700,0r0,460v4,138,59,171,205,171r0,35r-583,0r0,-35v141,0,212,-57,212,-171r0,-1007v-3,-138,-56,-171,-205,-171r0,-35r577,0r0,35v-137,0,-205,57,-205,171r-1,453r700,0r0,-453","w":1624},"I":{"d":"251,-1214v-4,-137,-57,-172,-205,-171r0,-35r577,0r0,35v-137,0,-206,57,-206,171r0,1007v4,137,58,172,205,171r0,35r-583,0r0,-35v141,0,212,-57,212,-171r0,-1007","w":758},"J":{"d":"376,-1214v-4,-138,-56,-171,-205,-171r0,-35r544,0r0,35v-130,2,-172,41,-172,171r0,978v0,181,-28,338,-85,471v-76,180,-193,270,-350,270v-140,0,-210,-38,-210,-113v-1,-47,34,-89,81,-89v51,0,87,17,109,51v22,34,64,52,124,52v119,0,164,-194,164,-344r0,-1276","w":800},"K":{"d":"251,-1214v-3,-137,-59,-172,-205,-171r0,-35r577,0r0,35v-137,-1,-205,56,-205,171r-1,509v161,-69,313,-262,434,-401v79,-91,116,-157,116,-192v0,-46,-55,-74,-165,-84r7,-37r520,0r0,50v-74,2,-135,3,-182,37v-42,31,-100,90,-165,186v-165,242,-196,248,-355,417v143,75,374,346,512,512v86,104,148,156,178,165v55,16,118,20,188,13r0,37r-646,0r6,-37v56,17,150,5,158,-43v-10,-52,-171,-200,-227,-258v-130,-134,-256,-233,-379,-296r0,429v3,136,61,172,205,171r0,35r-583,0r0,-35v141,1,212,-56,212,-171r0,-1007","w":1575},"L":{"d":"921,-80v135,-1,214,-137,236,-271r41,4r-79,347r-1126,0r0,-37v159,-2,239,-47,239,-136r0,-1076v-8,-121,-65,-136,-215,-134r0,-35r635,0r0,32v-108,-10,-239,45,-239,138r0,1057v0,74,28,111,85,111r423,0","w":1216},"M":{"d":"1750,-1379r-73,-2v-66,0,-97,26,-93,79r82,1195v-2,41,131,73,184,71r0,36r-535,0r0,-32v59,5,190,-85,185,-145r-79,-998r-504,1175r-51,0r-527,-1213r-65,1070v-6,61,132,114,199,111r3,32r-445,0r-3,-32v105,0,160,-48,165,-143r62,-1083v1,-82,-80,-122,-169,-121r1,-46r338,0r504,1173r504,-1173r317,0r0,46","w":1937},"N":{"d":"1299,-1254v2,-78,-91,-119,-178,-115r0,-49r438,0v5,14,2,31,0,49v-73,9,-112,14,-119,17v-35,14,-53,47,-53,98r0,1254r-44,0r-1074,-1204r0,1036v-8,101,95,142,216,127r0,41r-451,0r-12,-41v110,0,165,-28,165,-83r0,-1137v0,-67,-93,-107,-165,-114r6,-43r318,0r953,1116r0,-952","w":1577},"O":{"d":"736,-1436v421,0,742,270,742,681v0,431,-304,767,-730,767v-421,0,-739,-270,-739,-681v0,-432,301,-767,727,-767xm762,-47v341,0,514,-273,514,-634v0,-354,-215,-698,-549,-698v-337,0,-506,286,-506,647v0,352,209,685,541,685","w":1569},"P":{"d":"40,-39v142,2,194,-40,194,-182r0,-1029v0,-89,-65,-133,-194,-132r0,-37v190,-26,709,-28,853,38v147,68,226,174,226,343v0,248,-269,446,-527,446v-45,0,-106,-10,-182,-30r-1,415v-2,117,102,183,227,174v2,13,9,24,6,38r-608,0xm611,-657v206,0,298,-158,298,-381v0,-189,-137,-352,-323,-352v-37,0,-151,18,-176,19r0,695v45,13,112,19,201,19","w":1187},"Q":{"d":"1515,-745v0,383,-238,676,-561,745v84,36,160,139,228,205v109,106,232,163,365,176r-20,31v-134,-4,-256,-33,-367,-88v-45,-22,-135,-78,-268,-169v-109,-74,-208,-126,-299,-155v-183,-59,-321,-136,-414,-229v-112,-113,-168,-257,-168,-433v0,-432,315,-764,744,-764v426,0,760,266,760,681xm782,-37v347,0,525,-266,525,-630v0,-355,-225,-703,-561,-703v-347,0,-524,258,-524,622v0,351,227,711,560,711","w":1654},"R":{"d":"1119,-1038v0,186,-128,320,-272,387r303,470v55,84,110,126,165,127r7,50v-141,11,-344,-117,-400,-209r-235,-387v-106,16,-160,7,-277,-22r-1,415v-2,117,102,183,227,174v2,13,9,24,6,38r-608,0r6,-44v142,2,194,-40,194,-182r0,-1029v0,-89,-65,-133,-194,-132r0,-37v190,-26,708,-28,852,38v148,68,227,174,227,343xm611,-657v205,0,298,-159,298,-381v0,-188,-138,-352,-323,-352v-36,0,-153,18,-176,19r0,695v45,13,112,19,201,19","w":1346},"S":{"d":"479,-1370v-127,-4,-211,90,-211,217v0,80,60,163,181,246r335,230v120,103,180,215,180,338v0,228,-173,356,-410,356v-63,0,-261,-44,-324,-40v-17,0,-32,6,-45,19r-32,0r-57,-351r38,-13v43,187,189,330,408,332v155,1,269,-120,269,-275v0,-79,-60,-165,-184,-251r-341,-238v-123,-103,-184,-213,-184,-330v0,-188,230,-304,435,-304v45,0,177,39,220,39v21,0,37,-9,48,-27r38,0r64,422r-45,0v-60,-234,-133,-363,-383,-370","w":1015},"T":{"d":"731,-188v4,116,72,139,208,136r0,52r-604,0r0,-39v143,1,214,-48,214,-149r0,-1162r-377,0v-65,0,-108,92,-131,276r-32,0r32,-389r18,0v27,30,59,45,97,45r957,0v39,0,76,-15,113,-45r13,0r50,376r-44,6v-15,-80,-26,-133,-35,-160v-24,-73,-56,-109,-97,-109r-382,0r0,1162","w":1341},"U":{"d":"779,-83v222,0,414,-149,414,-364r0,-734v0,-127,-56,-190,-169,-188r-13,-49r461,2v-2,17,2,40,-3,53v-73,11,-117,21,-131,28v-34,18,-51,57,-51,116r0,791v7,272,-278,445,-565,445v-326,0,-583,-214,-583,-533r0,-753v0,-69,-54,-103,-163,-100r13,-49r489,0r-6,49v-117,11,-176,48,-176,113r0,778v-14,188,288,395,483,395","w":1468},"V":{"d":"1465,-1418r-19,35v-157,21,-147,33,-205,179r-491,1232r-77,0r-504,-1239v-50,-114,-66,-136,-192,-166r-6,-41r600,0r-25,48v-69,9,-109,14,-121,17v-128,40,-97,63,-46,187r383,926r352,-869v34,-84,51,-140,51,-169v0,-57,-63,-91,-190,-102r-15,-38r505,0","w":1550},"W":{"d":"1577,-1376v-10,1,-79,-5,-93,-4r-8,-38r482,0r-20,35v-61,-1,-143,64,-161,112r-479,1271r-97,0r-229,-609r-235,609r-94,0r-480,-1277v-22,-58,-85,-87,-188,-87r-9,-54r1429,0r-11,29v-76,0,-130,43,-163,128r-169,443r200,532v14,42,37,45,52,5r380,-1019v23,-68,-23,-80,-107,-76xm1131,-1298v10,-43,-7,-85,-49,-85r-163,0v-47,-2,-69,34,-54,74r110,288v22,61,29,61,50,5xm906,-699v16,-47,9,-65,-10,-118r-185,-488v-13,-34,-46,-56,-101,-65v-21,-4,-65,-6,-131,-6v-126,0,-186,27,-156,107r372,994v22,55,29,57,51,2","w":1888},"X":{"d":"679,-1376v-56,7,-188,13,-191,48v19,57,265,364,341,464r179,-229v98,-129,147,-202,147,-219v0,-35,-52,-60,-156,-76v9,-14,13,-24,12,-30r477,0r-6,36v-117,29,-194,69,-232,119r-362,477r481,634v51,67,138,100,263,100v4,14,-5,35,-6,52r-583,0r0,-52v86,-13,129,-36,129,-69v0,-9,-130,-184,-390,-525v-273,359,-409,542,-409,550v0,32,62,51,187,57r0,39r-534,0r0,-46v87,-4,132,-6,135,-7v43,-9,79,-33,110,-74r452,-596r-396,-521v-78,-88,-114,-96,-276,-132r7,-42r621,0v-5,12,-3,25,0,42","w":1718},"Y":{"d":"766,-207v4,138,56,171,205,171r0,35r-583,0r0,-35v141,0,211,-57,211,-171r0,-339r-425,-722v-48,-75,-67,-90,-175,-105r-19,-45r547,0r-9,49v-127,10,-190,27,-190,50v0,10,129,231,388,664r367,-656v-1,-36,-58,-57,-173,-64r-28,-43r461,0r-4,41v-136,9,-129,14,-186,113r-387,671r0,386","w":1295},"Z":{"d":"1162,-372r-138,372r-1005,0r-3,-57r819,-1272r-608,0v-80,0,-110,183,-134,268r-43,-4r79,-391r35,-12v21,33,45,50,74,50r830,0v-3,9,-5,24,-16,40r-846,1284r745,0v69,-4,143,-200,180,-278r31,0","w":1189},"[":{"d":"576,483r-465,0r0,-1903r465,0r0,93r-318,0r0,1718r318,0r0,92","w":609},"\\":{"d":"723,-4r-89,19r-624,-1415r82,-19","w":775},"]":{"d":"527,483r-464,0r0,-92r317,0r0,-1718r-317,0r0,-93r464,0r0,1903","w":704},"^":{"d":"958,-676r-53,61r-399,-647r-398,647r-54,-61r452,-731","w":1059},"_":{"d":"973,481r-973,0r0,-101r973,0r0,101","w":984},"`":{"d":"436,-1041r-24,30r-303,-372r174,-59","w":516},"a":{"d":"445,-927v186,3,273,62,273,241r0,515v0,57,20,86,59,86v25,0,69,-19,133,-56r2,41v-67,49,-101,74,-102,75v-111,68,-206,56,-238,-91v-81,59,-125,90,-134,95v-44,25,-95,37,-152,37v-110,0,-202,-91,-202,-201v0,-70,27,-128,83,-172v80,-63,283,-133,401,-184r0,-149v3,-103,-90,-187,-193,-187v-103,0,-140,85,-119,182v10,46,-97,94,-146,92v-11,0,-17,-9,-17,-28v-5,-172,173,-299,352,-296xm359,-76v102,-6,125,-40,210,-107r-1,-300r-203,89v-91,40,-137,104,-137,193v0,75,57,129,131,125","w":904},"b":{"d":"566,-932v220,0,358,221,358,455v0,300,-225,489,-533,489v-99,0,-208,-15,-327,-45r0,-1225v-1,-64,-87,-96,-163,-92v-7,-1,-12,-31,-20,-33v111,-11,220,-42,327,-92r0,688v96,-57,153,-89,170,-98v66,-31,129,-47,188,-47xm475,-52v180,0,288,-187,288,-379v0,-186,-114,-405,-286,-405v-74,0,-242,67,-269,111r0,524v-7,83,173,149,267,149","w":1105},"c":{"d":"160,-461v0,171,158,373,324,373v125,0,220,-56,286,-169v27,-1,41,3,41,11v-83,176,-214,264,-393,264v-224,0,-408,-220,-408,-448v0,-287,233,-503,523,-503v75,0,255,71,255,138v0,63,-30,95,-90,95v-78,0,-76,-79,-104,-129v-18,-33,-64,-46,-127,-46v-196,0,-307,202,-307,414","w":913},"d":{"d":"932,-125v23,0,92,-9,115,-8r0,35v-91,32,-205,68,-275,112v-6,4,-12,6,-19,6v-29,-7,-27,-64,-25,-113v2,-44,4,-54,4,-54v-103,59,-210,157,-362,157v-204,0,-356,-235,-356,-449v0,-283,219,-499,465,-499v105,0,190,18,253,54r0,-397v-3,-72,-74,-84,-176,-73r0,-35v103,-13,207,-48,312,-103r0,1299v-2,31,33,68,64,68xm168,-446v0,164,131,360,289,360v57,0,148,-33,275,-100r0,-515v-88,-119,-129,-168,-308,-171v-184,-3,-256,211,-256,426","w":1060},"e":{"d":"149,-501v-6,192,151,413,335,413v125,0,221,-56,286,-169v18,-1,33,1,41,11v-83,176,-214,264,-393,264v-223,0,-403,-240,-403,-469v0,-264,177,-484,433,-484v206,0,355,141,352,348r-646,0v-3,28,-5,57,-5,86xm647,-644v-3,-132,-105,-231,-241,-231v-118,0,-208,123,-230,231r471,0","w":883},"f":{"d":"599,-1366v-127,0,-260,95,-260,219r0,237r235,0r0,76r-235,0r0,662v-5,108,84,139,204,127r0,45r-487,0r-5,-29v55,-17,87,-28,97,-33v33,-18,50,-45,50,-81r0,-691v-19,2,-77,-3,-175,-14r0,-39v83,0,131,-8,144,-23r31,0v-2,-109,9,-214,35,-262v19,-35,66,-91,144,-166v68,-65,166,-98,294,-98v69,0,145,39,230,118r-100,94v-21,-95,-89,-142,-202,-142","w":772},"g":{"d":"31,-604v0,-187,172,-336,362,-336v116,0,207,31,274,92r304,-20v1,23,3,61,6,115r-242,-26v37,55,55,118,55,187v-2,216,-274,329,-518,271v-89,47,-134,90,-134,127v0,43,72,69,215,78v207,14,340,29,399,46v143,40,215,119,215,237v0,102,-73,187,-218,255v-120,57,-238,85,-354,85v-172,0,-385,-53,-385,-193v0,-101,73,-203,218,-307v-17,-19,-142,-41,-158,-62v-66,-36,-66,-141,-14,-188v27,-24,150,-59,174,-90v-133,-43,-199,-134,-199,-271xm392,-886v-140,0,-212,142,-212,295v0,154,77,231,231,231v153,0,229,-79,229,-236v0,-141,-112,-290,-248,-290xm479,424v128,0,353,-115,353,-236v0,-69,-45,-119,-137,-145v-104,-29,-256,-31,-421,-40v-94,75,-141,165,-141,272v0,99,115,149,346,149","w":1052},"h":{"d":"677,-934v145,0,218,154,218,315r0,488v0,55,53,82,158,82r5,49r-451,0r0,-45v92,0,138,-45,138,-135r0,-423v3,-111,-63,-230,-165,-230v-69,0,-173,48,-312,143r0,538v0,65,51,101,154,107r20,45r-458,0v-6,-11,1,-26,2,-39v112,-3,138,-43,139,-162r0,-1066v1,-48,-56,-81,-109,-80r-51,10v2,-31,-3,-45,31,-55v83,-25,167,-43,230,-90r42,0r0,732v162,-123,298,-184,409,-184","w":1147},"i":{"d":"45,-39v99,0,138,-23,138,-116r0,-597v4,-76,-68,-83,-135,-64r-25,-40v127,-35,222,-73,285,-113r37,27r0,790v0,65,51,101,153,107r4,45r-459,0v-8,-10,1,-26,2,-39xm254,-1383v56,0,103,47,103,103v0,56,-47,104,-103,104v-56,0,-103,-48,-103,-104v0,-56,47,-103,103,-103","w":549},"j":{"d":"150,425v96,2,152,-88,152,-188r0,-989v4,-76,-68,-83,-135,-64r-25,-40v126,-35,221,-73,285,-113r37,27r0,1044v3,186,-173,410,-391,410v-125,0,-300,-69,-209,-179v18,-21,36,-31,53,-31v30,0,191,139,233,123xm374,-1383v56,0,103,47,103,103v0,56,-47,104,-103,104v-56,0,-103,-48,-103,-104v0,-56,47,-103,103,-103","w":743},"k":{"d":"-17,-1338v2,-31,-3,-44,31,-55v77,-25,170,-53,230,-90r42,0r0,905r215,-168v52,-41,78,-72,78,-91v0,-27,-38,-41,-113,-41r10,-39r424,0r2,44v-69,-1,-197,35,-233,65r-262,214r432,438v67,68,142,104,226,107r-4,49r-475,0r4,-49v121,-21,131,-42,66,-111r-370,-397r0,405v0,65,51,101,154,107r-6,45r-432,0v-8,-10,1,-26,2,-39v81,2,138,-77,138,-162r0,-1067v0,-67,-93,-95,-159,-70","w":1146,"k":{"j":61}},"l":{"d":"33,-1338v2,-31,-3,-45,31,-55v52,-16,129,-46,230,-90r44,0r0,1331v0,65,51,101,154,107r-6,45r-432,0v-8,-10,1,-26,2,-39v82,2,136,-77,136,-162r0,-1067v2,-46,-59,-90,-109,-80","w":535},"m":{"d":"1283,-948v138,0,227,151,227,297r0,520v0,55,51,82,154,82r6,49r-443,0r0,-45v91,0,136,-45,136,-135r0,-455v2,-112,-65,-223,-170,-223v-83,0,-181,42,-295,125r0,602v0,55,53,82,160,82r5,49r-442,0r0,-45v90,0,135,-45,135,-135r0,-455v2,-113,-54,-223,-158,-223v-84,0,-187,45,-309,135r0,571v0,65,50,101,151,107r-6,45r-423,0v-8,-10,1,-26,2,-39v81,2,135,-79,135,-162r0,-551v0,-24,-21,-43,-62,-57v-5,-2,-37,-9,-94,-22r0,-25v7,-7,15,-13,25,-16v53,-18,131,-50,236,-97r36,27r0,180v193,-124,326,-186,399,-186v94,0,173,102,196,186v193,-124,326,-186,399,-186","w":1710},"n":{"d":"714,-948v141,0,220,146,220,297r0,520v0,55,52,82,157,82r6,49r-451,0r0,-45v92,0,138,-45,138,-135r0,-455v2,-115,-56,-223,-161,-223v-86,0,-191,45,-316,135r0,571v0,65,51,101,154,107r-6,45r-432,0v-8,-10,1,-26,2,-39v81,2,138,-77,138,-162r0,-551v0,-24,-21,-43,-63,-57v-5,-2,-37,-9,-96,-22r0,-25v51,-4,236,-84,266,-113r37,27r0,180v197,-124,332,-186,407,-186","w":1120},"o":{"d":"478,-928v267,0,471,206,471,472v0,273,-201,468,-474,468v-244,0,-464,-211,-464,-455v0,-281,185,-485,467,-485xm189,-486v0,210,127,443,323,443v171,0,256,-108,256,-325v0,-261,-93,-512,-320,-509v-206,3,-259,153,-259,391","w":1008},"p":{"d":"674,-934v188,0,330,219,330,414v0,323,-365,676,-697,475r0,325v0,93,71,145,214,156r-2,49r-519,0v-5,-16,-17,-32,-4,-45v111,-3,167,-36,167,-98r0,-1010v-3,-118,-28,-127,-140,-139r-11,-49v78,-13,209,-80,260,-126r35,12r0,192v143,-104,265,-156,367,-156xm864,-461v0,-187,-120,-387,-296,-387v-93,0,-180,39,-261,117r0,536v85,83,179,125,284,125v72,-1,166,-80,201,-132v47,-70,72,-156,72,-259","w":1088},"q":{"d":"160,-475v0,189,134,401,314,401v43,0,130,-49,259,-146r0,-446v0,-5,-9,-21,-21,-50v-84,-198,-332,-227,-471,-71v-53,59,-81,163,-81,312xm12,-414v0,-285,204,-521,454,-522v81,0,184,26,307,79v23,-23,41,-49,55,-78r46,0r0,1270v0,68,52,102,156,102r-3,48r-527,0r4,-48v86,-1,135,-3,148,-8v31,-11,58,-48,81,-111r0,-478v-93,74,-147,116,-163,125v-61,37,-128,56,-199,56v-197,0,-359,-231,-359,-435","w":1106,"k":{"j":-102}},"r":{"d":"439,-35r71,-2r4,37r-495,0r0,-29v94,-3,141,-41,141,-114r0,-586v0,-39,-48,-69,-144,-90r0,-37v59,-7,142,-41,249,-102r39,8r0,236v80,-149,151,-224,214,-224v32,0,97,15,194,45v-2,38,-23,89,-62,154v-83,-43,-140,-64,-171,-64v-89,-2,-134,105,-175,164r0,496v0,72,45,108,135,108","w":761},"s":{"d":"392,-876v-88,0,-179,67,-179,152v0,54,42,101,126,140v153,71,231,108,234,110v85,56,127,131,127,225v0,134,-153,249,-292,249v-42,0,-172,-27,-214,-27v-25,0,-42,13,-51,39r-39,-8r-10,-258r23,-4v59,143,145,215,256,215v129,0,194,-58,194,-175v0,-67,-39,-122,-121,-157r-225,-96v-81,-49,-121,-122,-121,-218v0,-133,161,-237,300,-237v110,0,193,17,249,50r13,225r-23,4v-43,-91,-71,-144,-85,-161v-37,-45,-91,-68,-162,-68","w":841},"t":{"d":"276,-270v-5,63,95,172,160,172v42,0,107,-77,140,-111v13,0,20,11,19,33v-59,117,-141,176,-245,176v-122,0,-222,-90,-222,-209r0,-627r-97,0r-15,-49v147,-61,185,-134,225,-317r35,0r0,287r319,0r-42,79r-277,0r0,566","w":708},"u":{"d":"292,-303v-2,112,86,209,196,209v57,0,150,-47,281,-142r0,-550v0,-50,-64,-79,-193,-86r0,-33r336,-62r0,781v1,81,79,86,162,63r-2,41r-303,86r0,-180v-125,124,-260,186,-407,186v-145,0,-218,-99,-218,-297r0,-442v2,-81,-66,-132,-146,-131r-4,-41r298,-53r0,651","w":1160},"v":{"d":"1047,-915r-4,36v-73,1,-141,80,-167,140r-329,749r-54,0r-333,-769v-35,-80,-94,-120,-176,-120r0,-36r456,0r0,36v-97,0,-146,18,-146,54v0,11,82,213,247,608v10,25,25,19,35,-4r218,-486v50,-106,14,-178,-136,-176r11,-32r378,0","w":1047},"w":{"d":"1552,-915r-3,36v-79,0,-145,68,-169,132r-304,769r-52,0r-255,-642r-261,642r-51,0r-318,-757v-41,-96,-92,-144,-154,-144r0,-36r403,0r-4,44v-81,0,-122,19,-122,56v0,69,191,468,247,598v11,24,22,20,33,-4r201,-476v-28,-75,-48,-119,-60,-133v-26,-32,-69,-49,-130,-49r0,-36r432,0r-4,36v-91,0,-137,18,-137,54v0,11,77,213,232,608v10,24,24,20,33,-4r198,-486v44,-102,19,-179,-121,-176r11,-32r355,0","w":1554},"x":{"d":"1096,0r-449,0r4,-46v64,-9,85,-10,94,-54v-10,-67,-182,-269,-243,-348v-169,194,-253,306,-253,336v0,37,49,59,147,66r0,46r-396,0r-8,-33v85,-17,151,-53,197,-108r287,-341r-229,-302v-38,-50,-102,-75,-193,-75r-3,-58r445,0r-8,42v-68,0,-102,13,-102,39v0,19,58,103,174,253r157,-189v40,-65,19,-98,-90,-112r-4,-33r419,0r-4,29v-81,0,-165,41,-253,123v-12,11,-77,83,-196,218r311,390v58,72,121,108,188,107","w":1187},"y":{"d":"1086,-885v-74,0,-138,51,-191,152v-15,29,-58,125,-123,291r-320,803v-43,102,-98,152,-160,152v-83,0,-125,-22,-125,-65v0,-63,46,-106,138,-129v58,-15,107,-58,148,-129v14,-25,41,-89,80,-190r-342,-733v-45,-93,-69,-121,-171,-148r-5,-36r449,0r-5,40v-81,0,-122,23,-122,70v0,12,91,216,274,612r129,-316v70,-173,105,-267,105,-284v0,-60,-43,-89,-129,-86r1,-36r367,0","w":1084},"z":{"d":"837,-266r-102,266r-716,0r-3,-57r579,-770r-381,0v-37,0,-73,26,-91,85r-41,136r-43,-4r78,-344r35,-13v21,33,45,50,74,50r603,0v-5,13,-10,26,-16,40r-607,783r456,0v67,1,114,-114,143,-172r32,0","w":970},"{":{"d":"399,-53v11,166,79,190,244,229r-16,39v-247,-31,-370,-122,-370,-275v0,-78,40,-321,40,-398v0,-124,-111,-222,-221,-247v110,-27,219,-123,221,-248v1,-76,-40,-321,-40,-397v0,-153,123,-245,370,-276r16,40v-166,39,-233,61,-244,228v-5,73,71,296,71,369v0,135,-97,229,-292,284v195,54,292,148,292,283v0,74,-76,296,-71,369","w":662},"|":{"d":"242,481r-78,0r0,-1899r78,0r0,1899","w":419},"}":{"d":"357,-953v0,124,111,222,221,248v-111,25,-219,123,-221,247v-1,78,40,320,40,398v0,153,-123,244,-370,275r-15,-39v165,-40,232,-62,243,-229v5,-73,-70,-295,-70,-369v0,-135,97,-229,291,-283v-194,-55,-291,-149,-291,-284v0,-73,75,-296,70,-369v-11,-166,-79,-190,-243,-228r15,-40v247,31,370,123,370,276v0,77,-40,321,-40,397","w":630},"~":{"d":"773,-802v94,0,160,-74,176,-161r67,27v-41,175,-128,263,-262,263v-92,0,-187,-27,-284,-83v-97,-56,-168,-84,-211,-84v-94,0,-159,75,-175,161r-68,-27v41,-175,128,-263,263,-263v91,0,185,27,283,83v98,56,168,84,211,84","w":1093},"\u00c7":{"d":"699,79v81,8,165,65,164,147v-1,148,-257,212,-394,139r0,-29v33,10,75,15,124,15v69,0,153,-47,153,-111v0,-77,-98,-89,-168,-68r124,-194r55,0xm810,-38v210,-4,414,-164,475,-328r41,12v-44,127,-108,232,-191,315v-204,33,-335,49,-393,49v-381,0,-704,-287,-704,-663v0,-418,325,-771,739,-771v139,0,263,28,375,77v53,23,67,38,98,9r31,2r14,302r-37,0v-49,-198,-240,-340,-481,-340v-327,0,-550,314,-550,654v0,354,241,688,583,682","w":1407},"\u00d6":{"d":"905,-1754v56,0,103,47,103,103v0,56,-47,104,-103,104v-56,0,-103,-48,-103,-104v0,-56,47,-103,103,-103xm557,-1754v55,0,103,48,103,103v0,55,-48,104,-103,104v-56,0,-104,-48,-104,-104v0,-56,48,-103,104,-103xm736,-1436v421,0,742,270,742,681v0,431,-304,767,-730,767v-421,0,-739,-270,-739,-681v0,-432,301,-767,727,-767xm762,-47v341,0,514,-273,514,-634v0,-354,-215,-698,-549,-698v-337,0,-506,286,-506,647v0,352,209,685,541,685","w":1618},"\u00dc":{"d":"903,-1754v56,0,103,47,103,103v0,56,-47,104,-103,104v-56,0,-103,-48,-103,-104v0,-56,47,-103,103,-103xm555,-1754v55,0,103,48,103,103v0,55,-48,104,-103,104v-56,0,-104,-48,-104,-104v0,-56,48,-103,104,-103xm779,-83v222,0,414,-149,414,-364r0,-734v0,-127,-56,-190,-169,-188r-13,-49r461,2v-2,17,2,40,-3,53v-73,11,-117,21,-131,28v-34,18,-51,57,-51,116r0,791v7,272,-278,445,-565,445v-326,0,-583,-214,-583,-533r0,-753v0,-69,-54,-103,-163,-100r13,-49r489,0r-6,49v-117,11,-176,48,-176,113r0,778v-14,188,288,395,483,395","w":1457},"\u00e7":{"d":"471,79v81,8,165,65,164,147v-1,148,-257,212,-394,139r0,-29v33,10,75,15,124,15v69,0,153,-47,153,-111v0,-77,-98,-89,-168,-68r124,-194r55,0xm160,-461v0,171,158,373,324,373v125,0,220,-56,286,-169v27,-1,41,3,41,11v-83,176,-214,264,-393,264v-224,0,-408,-220,-408,-448v0,-287,233,-503,523,-503v75,0,255,71,255,138v0,63,-30,95,-90,95v-78,0,-76,-79,-104,-129v-18,-33,-64,-46,-127,-46v-196,0,-307,202,-307,414","w":908},"\u00f6":{"d":"641,-1382v56,0,103,47,103,103v0,56,-47,104,-103,104v-56,0,-103,-48,-103,-104v0,-56,47,-103,103,-103xm293,-1382v55,0,103,48,103,103v0,55,-48,104,-103,104v-56,0,-104,-48,-104,-104v0,-56,48,-103,104,-103xm478,-928v267,0,471,206,471,472v0,273,-201,468,-474,468v-244,0,-464,-211,-464,-455v0,-281,185,-485,467,-485xm189,-486v0,210,127,443,323,443v171,0,256,-108,256,-325v0,-261,-93,-512,-320,-509v-206,3,-259,153,-259,391","w":989},"\u00fc":{"d":"675,-1382v56,0,103,47,103,103v0,56,-47,104,-103,104v-56,0,-103,-48,-103,-104v0,-56,47,-103,103,-103xm327,-1382v55,0,103,48,103,103v0,55,-48,104,-103,104v-56,0,-104,-48,-104,-104v0,-56,48,-103,104,-103xm292,-303v-2,112,86,209,196,209v57,0,150,-47,281,-142r0,-550v0,-50,-64,-79,-193,-86r0,-33r336,-62r0,781v1,81,79,86,162,63r-2,41r-303,86r0,-180v-125,124,-260,186,-407,186v-145,0,-218,-99,-218,-297r0,-442v2,-81,-66,-132,-146,-131r-4,-41r298,-53r0,651","w":1133},"\u011e":{"d":"765,-1623v107,0,230,-114,231,-211r33,30v6,140,-127,279,-264,279v-137,0,-270,-139,-264,-279r34,-30v0,94,126,211,230,211xm202,-683v0,338,221,644,547,644v153,0,266,-31,340,-93r0,-361v0,-93,-61,-140,-183,-140r0,-40r488,0r0,40v-80,-3,-142,49,-142,126r0,388v-173,89,-357,134,-550,134v-386,0,-689,-286,-689,-668v0,-442,296,-781,732,-781v116,0,222,19,319,54v61,22,109,37,154,6r18,0r30,368r-38,0v-31,-228,-206,-379,-461,-379v-358,0,-565,324,-565,702","w":1364},"\u011f":{"d":"448,-1225v107,0,230,-114,231,-211r33,30v6,140,-127,279,-264,279v-137,0,-270,-139,-264,-279r34,-30v0,94,126,211,230,211xm31,-604v0,-187,172,-336,362,-336v116,0,207,31,274,92r304,-20v1,23,3,61,6,115r-242,-26v37,55,55,118,55,187v-2,216,-274,329,-518,271v-89,47,-134,90,-134,127v0,43,72,69,215,78v207,14,340,29,399,46v143,40,215,119,215,237v0,102,-73,187,-218,255v-120,57,-238,85,-354,85v-172,0,-385,-53,-385,-193v0,-101,73,-203,218,-307v-17,-19,-142,-41,-158,-62v-66,-36,-66,-141,-14,-188v27,-24,150,-59,174,-90v-133,-43,-199,-134,-199,-271xm392,-886v-140,0,-212,142,-212,295v0,154,77,231,231,231v153,0,229,-79,229,-236v0,-141,-112,-290,-248,-290xm479,424v128,0,353,-115,353,-236v0,-69,-45,-119,-137,-145v-104,-29,-256,-31,-421,-40v-94,75,-141,165,-141,272v0,99,115,149,346,149","w":1037},"\u0130":{"d":"334,-1755v55,0,104,48,104,103v0,56,-48,104,-104,104v-55,0,-103,-49,-103,-104v0,-54,49,-103,103,-103xm251,-1214v-4,-137,-57,-172,-205,-171r0,-35r577,0r0,35v-137,0,-206,57,-206,171r0,1007v4,137,58,172,205,171r0,35r-583,0r0,-35v141,0,212,-57,212,-171r0,-1007","w":756},"\u0131":{"d":"45,-39v99,0,138,-23,138,-116r0,-597v4,-76,-68,-83,-135,-64r-25,-40v127,-35,222,-73,285,-113r37,27r0,790v0,65,51,101,153,107r4,45r-459,0v-8,-10,1,-26,2,-39","w":642},"\u015e":{"d":"557,79v81,8,165,65,164,147v-1,148,-257,212,-394,139r0,-29v33,10,75,15,124,15v69,0,153,-47,153,-111v0,-77,-98,-89,-168,-68r124,-194r55,0xm479,-1370v-127,-4,-211,90,-211,217v0,80,60,163,181,246r335,230v120,103,180,215,180,338v0,228,-173,356,-410,356v-63,0,-261,-44,-324,-40v-17,0,-32,6,-45,19r-32,0r-57,-351r38,-13v43,187,189,330,408,332v155,1,269,-120,269,-275v0,-79,-60,-165,-184,-251r-341,-238v-123,-103,-184,-213,-184,-330v0,-188,230,-304,435,-304v45,0,177,39,220,39v21,0,37,-9,48,-27r38,0r64,422r-45,0v-60,-234,-133,-363,-383,-370","w":1015},"\u015f":{"d":"361,79v81,8,165,65,164,147v-1,148,-257,212,-394,139r0,-29v33,10,75,15,124,15v69,0,153,-47,153,-111v0,-77,-98,-89,-168,-68r124,-194r55,0xm392,-876v-88,0,-179,67,-179,152v0,54,42,101,126,140v153,71,231,108,234,110v85,56,127,131,127,225v0,134,-153,249,-292,249v-42,0,-172,-27,-214,-27v-25,0,-42,13,-51,39r-39,-8r-10,-258r23,-4v59,143,145,215,256,215v129,0,194,-58,194,-175v0,-67,-39,-122,-121,-157r-225,-96v-81,-49,-121,-122,-121,-218v0,-133,161,-237,300,-237v110,0,193,17,249,50r13,225r-23,4v-43,-91,-71,-144,-85,-161v-37,-45,-91,-68,-162,-68","w":796},"\u20ac":{"d":"810,-38v210,0,414,-164,475,-328r41,12v-44,127,-108,232,-191,315v-204,33,-335,49,-393,49v-335,2,-616,-213,-682,-488r-133,0r0,-95r115,0v-10,-99,-2,-192,20,-282r-135,0r0,-94r165,0v96,-263,350,-474,685,-475v139,0,263,28,375,77v53,23,67,38,98,9r31,2r14,302r-37,0v-49,-198,-240,-340,-481,-340v-270,1,-452,196,-517,425r677,0r0,94r-699,0v-15,94,-15,190,3,282r696,0r0,95r-673,0v70,239,263,440,546,440","w":1365},"\u00a0":{"w":615}}});
